3938 64
262323027 1.1156077 -0.3272692 1.1988224 0.08469702 0.26122543 -0.91542214 0.10480085 0.13462204 -0.60911465 -0.49033895 0.85429746 -0.67726564 -0.5164958 -0.42948967 -0.36646128 0.24092928 -0.44339046 0.4710439 0.24111314 0.02469533 0.3063596 0.41767865 -0.2194513 -0.66472054 0.07713884 -0.19786337 -0.3737339 0.27994332 -0.56952536 -0.063232794 -0.31462833 0.022192542 0.1649265 -1.035538 -0.74862254 0.47904655 0.4699335 -1.0211346 0.5258766 -0.1927908 -0.6443667 -0.16175634 -1.0202878 -0.5420425 1.0889437 -0.1224236 -0.3172799 0.08908834 0.5751645 1.9362192 -0.18074119 -0.20733687 -0.7966694 0.10971443 0.52533853 0.13681607 0.053362824 -1.0864259 -0.30093947 0.83507234 -0.7094642 -0.887162 0.10151762 0.24340835
412477262 0.9372355 -0.24679993 0.8596807 -0.18948697 0.5376125 0.008191506 0.36946157 -0.64800084 -0.45079818 -0.74117136 0.13070612 -0.11257639 0.6099377 -0.33804718 -0.16324666 -0.013343415 -1.0904673 0.050734855 0.6432983 1.3830833 -0.4139233 -0.48534927 0.49548236 -1.2268766 -0.30708787 0.48871627 -0.0846162 -0.06608617 -0.90415215 0.37813565 0.56129575 0.94220304 -0.66812193 -1.2800869 -0.18524261 0.65672123 -0.9597615 -0.0032262045 0.6455424 0.45363912 0.92762953 -0.35293472 -0.46342754 -0.019363431 0.07242618 0.52629685 -0.006702473 -0.58961797 -0.37620202 1.053029 0.32848898 0.109834574 0.7236164 0.22404423 0.5476629 0.7235372 0.5526406 -0.17959161 -0.16626304 0.114864886 -0.6726001 -0.66632277 -0.26942098 0.09142545
207899267 0.5219885 0.1497564 1.2513708 -0.9917599 0.34337735 -0.19666669 0.06917077 -0.33626595 0.47835132 -0.051517516 0.48132345 -0.13423228 1.4582745 -0.51414 -0.5877023 0.21270931 -0.3990716 0.34383193 0.08635805 1.4855752 -0.2374205 0.830097 -0.44187734 -1.2797487 -0.007882167 0.74664795 -0.5768072 0.90253174 0.9599931 0.8330949 0.2828608 0.47403017 -0.52476376 -0.26545206 -0.67503244 -0.6544321 -0.1870479 -0.2680057 0.8658212 -0.5945287 0.35907087 -0.06382632 0.101477966 -0.5255275 0.4607186 0.8155296 -0.25315547 -0.2926763 -0.27630684 0.39401993 0.9381761 -0.61546624 -1.0007832 0.49330756 0.079562254 -0.6461715 0.3661855 0.06906216 -0.68152195 -0.20610881 -0.80467373 -0.6133266 -0.2558143 -0.13736944
148644083 0.8509005 -1.1638683 0.800622 -0.3362003 0.27174178 -0.3848793 -0.80156803 0.18395917 0.53297603 -0.46041957 -0.1903715 -0.48529795 1.14556 -0.0072123855 -0.90780634 -0.087732635 -1.099157 0.81978315 -0.6234956 0.35705066 0.27229053 0.8327271 0.024440803 -0.87166953 0.022577297 1.6859177 -0.95082736 0.25341398 -0.9139935 -0.2075948 -0.2675442 -0.21412836 0.32604116 -0.4013111 -0.22844972 0.6903084 -0.116279595 -0.3610378 0.35719314 -0.24580282 -0.391567 -0.53236735 -1.2185203 0.16014007 0.67184365 1.0238383 -0.4904725 0.15722995 0.33967233 -0.14641006 0.0006364705 0.8174868 -0.5636444 0.5580432 0.5336141 0.35722324 0.3968883 -0.17479618 -0.5341577 0.10383459 -1.1994196 -0.5352854 -1.3699062 0.17993654
318734760 1.018039 -0.49424 1.1796054 -0.14606683 0.911002 -0.4684504 0.6708902 -1.2567476 -0.09843552 0.58390594 1.1595503 0.14805272 0.5484276 0.30385408 0.105596624 0.742351 0.20536602 -0.3147495 0.42414346 1.6712918 1.0621517 0.77655214 -0.84527963 -0.56700784 -0.37187576 0.05563794 -0.29306868 0.8691356 0.23112191 -0.3674855 -0.56548446 0.056696635 0.109997734 -0.107270926 -0.10211141 0.8475022 -0.24271011 -1.0553445 0.33879095 0.2915433 -0.23869671 -0.07000271 -0.07956123 -0.14819291 0.18058458 1.1644994 -0.25317046 -0.05502115 0.49350294 0.7203124 1.0333261 -0.30024973 -0.18006976 -0.96444434 0.65098774 0.35324872 -0.38362664 -0.22029841 -0.21450424 0.5334131 -0.5601571 -0.07937325 -0.42595446 0.33438092
321838839 0.86540836 -0.5451501 1.7255384 -0.16424397 0.5404019 0.69515854 -0.2083595 0.27161473 0.8559377 -0.19457681 0.50100195 -0.6539306 0.0049873106 -0.32472363 -0.13423711 0.8905734 -0.048403908 -0.17720257 -0.23473428 1.4572802 -0.028040804 -0.17684501 -0.33391586 -0.25879067 -0.06420928 0.76124895 0.29340148 -0.366731 -0.89985126 -0.07052198 0.6712472 -0.10771093 -0.6556234 -0.103169814 -0.21209756 -0.10039562 -0.63435715 -1.0242054 0.24567395 -0.32574475 -0.18061145 -0.97579145 0.071474336 -0.5234556 0.72443813 0.15244447 -0.039230675 0.18660215 -0.7990008 -0.357527 -0.33797556 -0.30994582 -0.41565022 0.6287893 0.24745262 -0.30648902 0.19304651 -0.22866462 0.3240528 -0.029808477 -1.2437497 0.32093284 0.31688684 -0.3459625
251010064 0.60172224 -0.9270562 1.1977748 -0.41037923 0.38089573 -0.15887746 -0.765082 -0.16382262 0.4035906 -0.8955239 1.0071895 0.14776377 0.8224671 -1.2946254 -0.5350648 -0.72791475 -0.103584774 0.119124204 -0.2731571 0.78421193 -0.27809805 0.59361917 -0.4277862 -0.5982537 -0.7419972 1.2483116 -0.4692127 0.6523451 -0.7489337 -0.08433484 -0.29826155 -0.028277751 0.04665693 -0.48734424 -0.33990896 0.07654616 0.09499826 -1.3134601 0.18350941 0.23171079 -0.6944041 -0.04476553 0.016241396 0.32937208 -0.6070987 0.026057785 0.68698627 0.24506918 0.039050028 0.03168855 0.70256144 -0.7988118 -0.19351077 0.06625888 -0.03851341 -0.073861204 -0.19688222 -0.7111267 -0.40959156 0.89030635 -0.36281106 -0.27743512 0.5698712 -0.27860886
101180815 1.1856924 -0.62151974 0.87906384 0.02447219 0.34614328 -0.9922267 0.2184015 -0.47212076 -0.39915392 -0.9158987 0.86562496 -0.7937361 -0.2225811 -0.69819534 -0.46199626 0.49352154 -0.76861644 0.22447546 -0.015780428 0.521393 -0.20156501 0.5814165 -0.11920964 -0.60080343 -0.49175942 -0.33279154 -0.47842062 0.5398919 -0.3092365 0.21738255 -0.093475424 -0.40407747 -0.14465433 -0.93806267 -0.53422797 0.035645086 -0.38330522 -1.4640952 1.2548342 -0.029068068 -1.0277588 -0.60024667 -0.64400923 -0.47494155 1.1599298 0.12715386 -0.21038915 -0.12030222 0.676135 2.2230794 -0.60095143 -0.054819193 -1.4102689 0.1826798 0.27348948 0.031442598 -0.4818854 -1.1958497 0.06033279 0.3522724 -0.8035034 -1.3522058 0.44227415 0.5451584
318360662 0.9565803 -0.6346553 1.0825521 -0.20460221 0.029578872 -0.6456501 0.24470885 0.07102153 -0.36530387 -0.48100868 1.0670292 -0.6733545 -0.51329136 -0.6528962 -0.3540165 -0.17272371 -0.5914813 0.27520457 0.09649127 0.034011036 0.042426955 0.17700739 -0.034805633 -0.46061856 -0.0023620655 -0.16394138 -0.4127186 0.059537124 -0.5561478 -0.2398565 -0.32646027 -0.03399045 0.13547577 -0.6177443 -0.84201247 0.6247818 0.5404901 -0.9220426 0.39738476 -0.34618834 -0.4339099 -0.4591994 -1.290635 -0.30593717 1.351531 0.1439343 0.024383295 -0.22616078 0.4542707 1.9526572 -0.2981146 -0.5592018 -0.74648154 -0.03310653 0.4659353 0.25373325 0.20592503 -1.1397339 -0.451512 0.7989765 -0.7123559 -0.8185964 0.43351662 0.33261287
6498215417 0.85422367 -0.39281848 1.0563668 -0.23338251 0.40167016 -0.33075675 0.26397368 -0.8901098 -0.5878494 -0.9234771 0.2545752 0.036727995 0.62443376 -0.31354737 0.08629979 0.09262608 -1.1069187 -0.029962638 0.60442084 1.7871656 -0.572436 -0.38185126 0.38114044 -1.3909941 -0.5599045 0.33004862 -0.06601661 0.05720467 -0.96533203 0.515472 0.6099135 1.0026754 -0.6935938 -1.3756503 0.01046296 0.5259501 -1.0321456 0.020849109 0.6747783 0.6483736 1.1490686 -0.21546562 -0.25771746 -0.1842619 0.26750788 0.6528124 -0.054347694 -0.6998751 -0.16220397 1.2255245 0.2974722 0.045509383 0.6058462 -0.40970024 0.761876 0.7544192 0.5650455 -0.22429353 -0.019526461 0.068368874 -1.0826939 -0.9830045 -0.31072143 -0.21583521
1043569780 1.5403453 -1.0941509 1.1220509 -0.921045 1.2649958 0.5157105 -1.2072219 -0.6831765 0.51137936 -0.022146244 0.06900875 -0.9959476 0.012471678 0.037726827 -0.61833024 -0.4274967 -0.16505343 -0.23398125 0.22915585 0.075300515 0.78652126 -0.47006425 -0.23150554 -1.2863156 -0.90555334 0.1498868 -0.6474729 -0.512898 -0.6395436 -0.00652351 -0.17808557 0.45110235 -0.29463843 -0.8526378 0.43712687 -0.6567902 -0.30149212 -0.11939034 0.089649625 0.14619413 -0.17244446 -0.25776747 -0.8234286 -0.68880063 0.017230777 -0.10711562 -0.42056096 -0.67204213 -0.3526369 0.7950835 -0.75784993 -0.31501028 -0.32558346 0.47114924 0.61557513 0.78079116 0.98662347 0.23974003 -0.18339676 0.47044435 -0.15478092 -0.4111889 0.5732625 -0.07577674
1024892295 0.9049844 -1.3513111 1.0136839 -0.39747068 0.13685451 -0.38060194 -0.70124024 0.16518714 0.6072759 -0.47590402 -0.2338 -0.53212523 1.1211505 -0.06603634 -0.9804413 -0.16330288 -1.1717836 0.90972775 -0.6592272 0.36825836 0.24748333 0.8813225 -0.025663698 -0.8651451 -0.10381572 1.830274 -1.1082128 0.19364284 -0.9128841 -0.3256254 -0.2836336 -0.22302955 0.31119862 -0.34460863 -0.2737656 0.68764085 -0.022742163 -0.57591873 0.36207294 -0.1079144 -0.36072347 -0.69052154 -1.3524582 0.2315205 0.91075575 1.2043668 -0.4630898 0.18698259 0.43720168 -0.11014323 -0.076702304 0.8627638 -0.73028934 0.56569356 0.573007 0.45531294 0.45457122 -0.26088536 -0.58132577 0.26276195 -1.288503 -0.54461074 -1.4867048 0.29315025
5153332821 1.0403852 -0.18208997 1.5403883 -0.40778697 0.31342694 0.5750871 -0.55382 0.24437432 0.55182046 -0.14899954 0.57068455 -0.5981329 0.087168485 -0.29734704 0.17322662 0.7977149 0.11246655 -0.112734646 -0.22247803 1.4646958 0.16555133 -0.25488415 -0.1277193 -0.4912018 -0.21110804 0.71930563 0.69478774 -0.24394561 -0.78994197 -0.06729895 0.21293952 -0.13976069 -0.6992925 0.27461714 0.074767806 0.18719901 -0.6639422 -1.0163835 0.09068266 -0.45392334 0.025099793 -0.9613376 0.018146394 -0.4200191 1.0500989 0.07247686 -0.111423776 0.055523716 -0.5435654 -0.058728553 -0.36306176 -0.3325419 0.0070467065 0.4549041 0.3861791 -0.16980498 0.2679748 -0.23726349 0.4843616 -0.2601389 -1.2861884 0.24039668 0.47645554 -0.5975437
317283511 1.3273332 -0.2317102 1.3405503 0.1952704 1.013171 0.99222 -0.6431579 -0.54198545 0.6450096 -0.3881986 0.711023 -0.749469 0.45454553 -0.34467635 0.8232955 0.8761441 -0.5858225 0.15445356 0.09309955 1.3679651 0.018979484 0.133856 0.06648942 -1.0753592 -0.032923304 -0.34940225 0.40991762 -0.11467983 -0.7424618 -0.13920973 -0.03146031 -0.55409914 -0.5214612 -0.42563543 0.17872125 0.31026995 -1.1584151 -1.0111578 0.010586844 -0.26651293 -0.06946329 -0.50812745 -0.3232518 -0.1459461 0.8838065 -0.45778453 -0.46201268 -0.17938527 -0.350704 -0.25829762 0.37470418 -0.73011684 -0.30707836 0.08609174 0.6185707 0.029989777 0.28691038 0.60731107 0.6051091 -0.4786475 -0.8043066 0.1837613 0.7666955 -0.69009155
264120114 1.4364938 -0.12238429 1.2427258 -0.6222178 0.4741155 -0.5989908 -0.6154745 0.22884834 -0.14419186 -1.3457916 0.49155807 -0.23641162 -0.26356426 -0.51466835 -0.6849536 -0.052276015 -0.6247887 0.12481949 -0.39759362 1.7869681 0.7823473 -0.8786029 -0.4639015 -2.020308 -0.7690835 0.53590596 -0.99764013 -0.5037042 -0.0767647 -0.037903707 -0.4823094 0.6149994 0.68151736 -1.0400279 0.3261043 0.57198405 0.44623482 0.24372387 -0.5260062 0.22421397 0.15369543 -0.67262113 0.17522518 0.88860464 0.85172826 0.73881954 -1.1351223 -0.52421665 0.49341288 0.7978771 -0.2866227 0.44262743 -0.41854942 0.6401198 0.76836056 0.39243457 0.34331027 0.34496966 -0.048524704 -0.5106754 -0.6223735 -0.20137104 -0.29141706 0.37866715
401244684 0.8617925 0.083231725 1.3898748 -0.8325973 0.20238629 0.08620559 -0.9410206 -1.2068828 -0.025411252 -0.9346508 0.54519826 -0.1220893 0.21961905 -0.71857214 -0.3189606 -0.0947813 -0.17890346 -0.18459317 0.044067126 1.1900895 0.24368271 0.030445714 -0.918033 -0.41827422 -0.56623894 0.7291792 -0.7749678 0.56463695 -0.023704454 0.9237867 -0.10573973 0.16356184 0.88823956 0.059287667 -0.07685346 -0.25731033 -0.42745978 -0.81986433 -0.2110154 -0.09167912 0.1306391 -0.600103 -0.019091967 -0.25780994 -0.11466475 0.11286569 -0.74303967 -1.018959 -0.9277206 -0.54221743 0.47465467 0.16856949 0.5796558 -1.1024504 0.31930393 0.0132686095 1.0271963 -0.1616348 -0.36418894 -0.5079648 -1.2104496 -0.29976642 0.5693661 -0.15041451
932490649 0.7714442 -0.59149665 1.1464037 -0.21045978 -0.0060652695 0.55080026 -0.09705407 -0.21064456 0.98213184 0.32780606 -0.0783826 -0.50164896 -0.14480339 -0.51734334 -0.3822158 -0.6115865 -0.20419501 0.72947145 -0.24671453 0.7676 0.28900886 0.0840898 -0.1796671 -0.25162688 -0.9605315 0.7696045 -0.59762925 -0.068660006 -0.3923963 0.5739384 0.15275332 0.3331731 0.09519944 -0.26314524 -0.44521922 0.55586344 0.15705709 -0.7232622 -0.20215105 -0.18434054 -0.72557485 0.012955235 -0.5298835 -0.5734647 0.9034095 0.6346966 -0.06526971 0.60101986 -0.6215719 1.422548 0.43314216 0.82180375 -0.33815876 -0.86506283 0.28871816 0.9007997 1.2601414 0.48194486 0.397302 0.49638662 -1.4272825 0.963657 0.3225891 0.69711965
183455545 1.2516465 -0.23776552 1.5244098 -0.36951402 0.6257473 1.0655513 -0.83381695 0.0021002488 0.6274092 -0.5482258 0.54941034 -0.93340266 0.46948934 -0.15860744 0.29159358 0.92176014 -0.021620711 -0.01694628 -0.20879743 1.608083 0.0019920357 -0.1796745 0.04677171 -0.63902897 -0.2778314 0.3784317 0.6255593 0.009814236 -0.4742935 -0.15960778 0.31238276 -0.35944813 -0.52153766 -0.15650065 0.22814082 0.10135423 -0.7558773 -1.0972185 -0.015293212 -0.21097222 0.018102223 -0.84927666 -0.046518896 -0.5448549 0.57761556 -0.21592198 0.039774083 0.2407693 -0.47933394 -0.39618903 -0.36321965 -0.2652356 -0.14022629 0.15842336 0.27692574 -0.1420185 0.29423815 0.21814364 0.2432232 -0.21001075 -1.1779467 0.44173855 0.5066394 -0.66252047
109928721 1.3339041 0.16566128 0.22057949 0.6011054 0.55299735 0.3489852 -0.16101773 -0.3107168 -0.14531521 -0.049512237 0.34222528 -0.42356375 0.1674563 -0.032583244 -0.3954844 0.20791829 -0.32414383 0.6963497 -0.376745 1.805582 -0.33209565 0.57097954 0.10911588 -0.33161756 -1.0081707 0.2822768 -1.1971134 -0.9719013 -0.26144797 0.7985226 -0.6161324 0.39764467 0.16519192 -0.54443616 -0.22661364 0.22759402 -0.18038243 -0.3689611 -0.1915235 0.042888936 -0.08410504 0.21480624 0.20001706 -0.046385445 -0.010734661 -0.087883055 -0.68604714 0.34958056 0.044018973 0.46116135 0.9911308 -1.2139622 -0.12228422 0.1739644 0.72773325 0.8274937 1.1020716 -0.011364307 -0.27924126 0.2287023 -1.1199309 -0.6494482 -0.091577694 -0.98600596
321839534 0.8070465 0.1884567 1.4761654 -0.8809412 0.061900135 -0.05607554 -0.14254095 0.25956917 1.0851524 0.22337995 0.054682158 -0.69114923 0.09352215 0.19611947 -0.13010839 0.70639676 -0.5045114 0.19135983 -0.6721098 1.320282 -0.043367196 -0.58428603 -0.16477904 0.038439 -0.0051239314 1.3425268 -0.50895286 -0.12960579 -0.3796215 -0.4942868 0.49269545 0.47611934 -0.3688185 -0.21188195 -0.79443353 0.17055817 -0.38768807 -1.2094045 0.8260155 -0.9594986 -0.15362264 0.2804486 -0.46068415 0.16648546 0.69011736 0.6153091 0.25497383 0.5132692 -0.29765376 0.6918791 1.0007449 -0.053382654 -0.6352496 0.35515925 -0.09722059 0.7206684 0.16251059 -0.30079764 0.7230081 0.36162364 -0.69293594 -0.85427743 -0.12618849 -0.012805071
1509731814 0.91969705 -0.044853847 1.0416635 0.24244083 0.022921512 0.030260611 1.226362 -0.12147191 -0.17434697 0.54803216 0.9838043 -0.9046499 0.7187191 -0.9843811 -0.6948374 0.3896462 -0.4769853 0.20451562 0.305039 0.747147 -0.82009035 1.1833842 -0.76930666 -0.76123464 -0.35403565 -0.3940495 -0.7406658 0.24866837 -0.4234257 -0.12567663 -0.24074458 -0.20341407 -0.3306322 -0.7065661 0.109345354 0.5204384 0.071554966 -0.5761841 -0.3880778 -0.34692103 -0.18813816 -0.30469635 0.3356228 0.36951977 1.493277 0.612744 -0.2221769 -0.12944815 -0.5798932 1.1115439 1.124496 0.23676918 -0.34664524 0.288307 0.20609984 0.16330202 -0.35944805 0.7994459 0.081068434 -0.14242898 -1.535669 -0.51881063 0.49497598 0.4448966
144288069 0.94169456 -0.9606009 0.27046338 -0.30125445 0.5114567 -0.41088262 -0.5431562 -0.6082329 -0.46980983 -0.49776307 0.47926354 -0.48028144 0.57275194 -0.8760505 -0.7861808 0.7990766 -0.30380067 0.51727015 0.23329498 0.69763106 0.39864954 0.6747381 -0.35479364 -0.8592152 -0.74001324 -0.07592829 -1.2508502 -0.15644398 -0.6720242 0.36155513 1.0860806 0.3136252 0.013789605 -0.06124169 0.19331937 0.18790306 0.3839761 -0.68040293 1.4179872 -0.17365031 0.08830308 -0.76854455 0.23053446 0.25105608 0.10492633 -0.19959252 0.21686123 -0.06784258 -0.9859089 0.76020247 -0.18577589 -0.3864241 -0.37363374 -0.7471343 0.30576608 0.82684594 0.6427874 0.81686854 -0.61658055 -0.12557462 -0.20583831 -0.83564526 0.57500273 0.50570226
1308313063 1.0975121 -1.6563125 0.7900365 -1.2235935 0.49557495 0.6515806 -0.72985333 -0.08870826 1.0618044 -0.13684343 0.15766194 -1.4267246 0.42008567 0.16772479 0.15761867 -0.10773854 -0.25534448 -0.04768027 0.048851293 0.30029625 1.2180997 0.0039750063 -0.49001208 -1.4434855 -0.50317204 0.63493156 -0.6559814 -0.19376281 -0.5095086 0.07203477 -0.4878449 0.8131339 0.26257122 -1.1767421 0.73529446 -0.06865777 0.18106341 -0.05202645 -0.25526464 -0.19055182 -0.5833259 0.49028865 -0.61746734 -0.30182534 0.2722119 0.053328693 0.06749769 -0.5801722 0.082435764 0.543073 -0.61446756 -0.34910572 -0.67317504 0.2767513 0.39456207 0.91788334 0.6947781 0.1650175 -0.5149665 0.10717155 -0.15918869 -0.20523566 0.21151619 -0.038416944
6970142381 0.9907766 -1.6323408 0.5095744 -1.2786344 0.5108448 0.64398026 -0.5851013 0.02865797 0.9677234 -0.17051254 0.17412932 -1.4818511 0.31132084 0.13571617 0.15555832 -0.021816783 -0.26888126 0.010496438 0.113303654 0.54819316 1.4359075 0.18872587 -0.6962612 -1.361293 -0.58854264 0.8974233 -0.8116414 -0.15331417 -0.46627468 0.14936553 -0.48813447 0.74605274 0.3761284 -1.2674248 0.80066097 0.11231278 0.039157055 -0.085172154 -0.34950545 -0.3582952 -0.7639266 0.6499596 -0.6818967 -0.3934752 0.19291303 0.14123076 0.074947424 -0.456379 0.01022281 0.5602211 -0.5203565 -0.2836588 -0.8343298 0.39270812 0.53978676 0.8799758 0.52138853 0.07231236 -0.57285595 -0.067347616 -0.31724802 -0.29030976 0.22280918 -0.03492487
315798845 1.4431313 -1.0535333 1.0825753 -0.16788992 0.061040517 -0.23502757 -0.59217757 -0.24934533 0.7882209 0.3039063 -0.049821943 -0.8329172 0.8544044 -0.32929257 -0.5653682 0.20484924 0.51578474 0.22832988 0.07856017 1.3922268 0.036707345 0.32905108 0.73878354 -1.1653306 -0.39958736 -0.2184149 -0.66848534 -0.8917224 0.21899165 -0.384468 0.6148735 -0.0737609 0.66651124 -0.5504774 -0.91615415 -0.3929743 -0.38383058 -0.65020365 0.6626918 0.22511879 -0.637346 0.09192789 -0.34098253 0.14052138 -0.5979877 0.59136724 -0.37361503 -0.41673368 -0.5854794 0.27389717 0.05038594 -0.8333983 -0.058617286 -0.23372889 -0.3241854 0.94608665 -0.20352732 -1.0418801 -0.77153194 0.42965537 -0.2176527 -0.3012458 0.652897 -0.13156037
837258646 0.90415204 -1.4114034 0.9774922 -0.18916628 0.45742688 0.14444189 0.28403488 0.036342427 1.0202411 -0.28437182 0.024512952 -0.5092944 -0.28391683 -0.9238752 -0.09871681 1.2520846 -0.25213113 0.28289288 -0.49260145 0.7027375 -0.20005034 0.76334363 -0.3655069 -0.26707163 0.24153094 0.6116331 -0.19222103 -0.47023928 0.43743753 -0.21349065 0.24262981 -0.38703948 0.17296925 -0.79597855 -0.064253315 0.3534383 0.23065516 -0.59052646 -0.72290903 -0.41544685 -0.05936989 -1.1562461 0.06265489 1.0849947 0.8334172 0.3122424 -0.23425362 -1.1002363 0.28876096 1.0188036 -0.18215486 -1.2368094 -0.029410174 0.5875048 1.0223765 0.52573 -0.4133565 -0.47239116 -0.51748985 -0.11010595 -0.94879675 0.21741101 0.8122353 -0.20392758
148658083 1.0198787 -0.39940205 1.0018135 0.1372581 0.866128 -0.26134136 0.20257507 -0.13968939 -0.12409289 0.6820166 0.6721096 -1.0369195 0.36699218 -0.5573929 0.95001304 0.22990665 0.28779712 0.06667702 0.51597005 0.9309906 -0.29520452 0.5604026 -0.9895617 -0.73907334 0.34344146 0.081733815 -0.14884894 0.22616762 0.16917016 0.19632675 -0.23229495 0.2316074 -0.31590813 -0.8587028 -1.0852604 0.46588108 0.08669306 0.059966374 0.27222118 0.37400165 -0.0694996 -0.92985845 0.038196366 -0.5037963 0.5896944 0.2559974 0.68515503 -0.5283093 -0.17656715 0.5694459 0.15222195 -0.7127105 -0.42573208 0.0095093995 0.87164575 -0.30312338 1.2250415 -0.7459803 -1.1360635 0.6207167 -1.0644959 -0.89698637 -0.27765432 -0.63271546
932497767 1.5359342 -0.2570223 1.1419618 -0.12718512 0.079550795 0.46049994 0.34746054 -0.732893 0.15489319 0.37040594 0.20988414 -1.0535986 0.82751364 -1.0998306 0.15153144 -0.057360977 -0.003759559 -0.06051813 0.41807193 0.5454361 0.27585393 -0.15290377 -0.58817434 0.25257054 -0.1102644 0.64030915 0.11740456 -0.48291352 -0.30799422 1.3043013 0.16573885 0.7481774 -0.18906441 -0.69184804 -0.9019987 0.6829248 0.47329283 -0.4055045 0.62430745 -0.37248072 -0.4187086 -0.71838033 -0.0596809 0.13450265 1.0798193 0.7394348 -0.30061737 0.52603096 0.13532795 0.9168302 1.0514053 0.02576332 -1.0865391 0.51553816 0.85834277 0.22301151 0.7804098 0.4694508 -0.13232008 0.37224188 -0.56223935 -0.031441946 0.87232614 0.7496297
1493074032 0.7326754 -1.0455945 1.2579284 -0.1283489 0.55001557 -0.26143992 -0.27305457 -0.6970566 0.540803 -0.44677123 -0.05028666 0.18064547 0.10027601 -0.33470646 0.36098862 -0.16664022 -0.70904547 -0.42424273 -0.62645864 0.68132216 -0.6740018 0.24040549 0.109175704 -0.50466657 -0.84028006 1.1525643 -0.04442455 0.23600829 -0.31459025 -0.28373265 0.70683545 0.07610753 0.35798043 -0.27917516 -0.0512253 0.37225977 0.8697948 -0.74277306 0.89187044 0.55887944 -0.47341564 -0.32942635 -0.19786303 -0.47524345 0.5170186 0.9200988 0.3779223 -0.28070003 -0.05606586 0.32053658 0.26638806 0.46842292 -0.68468016 -0.23855694 -0.1590832 0.9069761 1.0895841 -0.5102762 -0.17690387 -0.38449132 -1.2056608 0.32727417 0.65926415 0.8275732
1722820580 0.8798722 -0.25952542 0.96134496 0.076155186 0.80094445 -0.3825188 0.18144256 -0.16734663 -0.28437898 0.50258046 0.5751153 -0.7223842 0.07530538 -0.458884 0.7392506 0.1922903 0.25979847 0.19383201 0.51212806 0.77618855 -0.27788395 0.75518274 -1.0762595 -0.9739331 0.16922097 0.06076984 -0.49098942 0.29455292 0.26861423 0.44641143 -0.34812656 0.31900588 -0.32724208 -0.9242142 -0.8849601 0.5996704 0.29594684 0.33741474 0.28877375 0.40471396 -0.017021285 -0.9403979 -0.2363769 -0.2840442 0.5202106 0.46997753 0.6693144 -0.3603638 -0.08666069 0.8929579 0.34286028 -0.51092845 -0.16092604 -0.020942966 0.8089155 -0.2784957 1.3351924 -0.6494192 -1.2700882 0.5518297 -0.9612588 -0.70786816 -0.25468644 -0.18994857
139792685 1.2209146 -0.49048656 0.449968 -0.11555329 0.4554515 -0.6305197 -0.5003091 -0.767303 0.23821388 -0.14708483 0.25807846 -0.351469 0.21567935 -0.717169 -1.0430477 0.6269801 -0.49211696 0.22575316 0.3395508 0.27136227 0.60347414 0.99444205 -0.0753353 -0.7374649 -0.29287514 0.024112241 -0.8772652 -0.45674366 -0.38497803 0.68834704 0.38330445 0.37179282 -0.13794962 -0.3958742 0.3619577 0.46617672 0.29651782 -0.8235781 1.0546767 0.05725428 -0.2874573 -0.4500235 0.6464695 -0.03217699 0.29942283 0.024272803 0.077195264 0.0358825 -1.1229621 0.42517665 0.17280327 -0.6039601 -0.48175156 -1.0344 0.6849931 0.73106724 0.77354896 0.9793276 -0.7822495 -0.006564367 -0.42830104 -1.1057698 0.24190764 0.4552663
183459820 1.0176058 -0.07679454 0.65643 -0.37189013 0.5497871 -0.39839736 -0.28977892 -0.029172346 -0.67329973 0.13770108 0.33695504 -0.78729296 -0.20400375 -0.46490163 0.69873583 0.43404502 0.2195401 0.2596266 0.39744854 0.7504029 -0.17963105 0.80884874 -0.8147886 -1.156099 0.0057867733 -0.045371242 -0.27187404 0.036682595 0.36487865 0.033679064 -0.5246566 0.31526428 -0.08451546 -0.81476015 -1.0258408 0.66292536 0.2781042 0.37545606 0.36554697 0.3467693 0.03194587 -0.64608234 -0.144193 -0.31102946 0.52934176 0.42183757 0.6627314 -0.5935208 0.123827904 0.8511166 0.56142926 -0.2634491 0.0238111 0.17995498 0.88635474 0.13865763 1.1275656 -0.46935764 -1.1512606 0.6901281 -0.7177228 -0.8458885 -0.39606598 0.034800466
2354533024 0.8363479 -0.7906207 0.8426333 -0.28080073 1.3733382 -0.4618333 -0.01534486 0.13021678 0.6462033 -0.82447404 0.7761123 0.0675274 0.67669827 -0.4074394 -0.5666997 -0.117961004 -0.116289325 1.1609026 -0.5051612 0.4993277 -0.44553423 -0.42297706 -0.009962781 -1.4095671 -0.5970908 0.81390274 0.5999882 1.3577893 0.066671364 0.2508013 -0.38410908 -0.1814242 0.564114 -0.5000149 -0.6025202 -0.1967519 -0.0458508 -0.9977854 0.48958558 -0.24020402 -0.32867733 -0.25528425 -0.24739553 0.40257922 0.1369651 0.14844312 -0.07777422 0.5574309 -0.011501759 -0.13928974 -0.29990146 -0.8360686 0.14790271 -0.30360082 0.19200855 0.8508846 -0.48850536 -0.021952337 -1.0041301 -0.19786727 -1.4810778 -0.22811146 1.1172999 0.52041024
317262372 1.7122457 -1.0183239 0.9761986 -0.6658673 1.2676798 0.5080535 -1.2079602 -0.7402126 0.40609628 -0.13785127 0.1734151 -0.9074839 -0.19125701 -0.083553486 -0.6057831 -0.4157412 -0.2190274 -0.021141907 0.20137735 0.24297032 0.94538164 -0.45514587 -0.41964948 -1.0720557 -1.1516702 0.071579866 -0.54881537 -0.67160785 -0.7532119 0.26572135 -0.10749691 0.55888927 -0.51667666 -0.8819358 0.249495 -0.7368227 -0.48138857 -0.11077354 0.25312066 -0.03267599 -0.3235913 -0.07722533 -0.85474664 -0.8699671 -0.043181054 -0.11812386 -0.58809555 -0.6204815 -0.51235104 0.89829713 -0.7329012 -0.35861415 -0.35769197 0.47107914 0.61424196 0.7940558 0.8905366 0.06289852 -0.010167854 0.45204714 -0.31502712 -0.34935656 0.6898223 -0.04676648
323720497 0.49086094 -0.6296113 1.7133019 0.24839668 0.31774077 -0.90480286 0.09849283 -0.7517915 -0.10095074 -0.36688468 -0.074004956 -0.6024367 0.004503003 -0.68591803 0.51554 -0.7201855 0.24701717 0.274313 -0.34127367 0.9989908 -0.4178796 0.51148164 -0.8095993 -1.1270721 -0.5568568 0.7881586 -0.37518728 0.8566946 0.2640398 -0.5026301 0.26409933 -0.030076133 -0.29990068 -1.0801314 -0.03411384 -0.4046314 -0.3325068 -0.36003911 1.0669112 0.29560813 -0.8483791 -0.2861281 0.5306044 0.6342703 0.70709026 0.40987304 -1.371576 0.6939696 0.5517594 0.37464333 0.18444827 0.10407888 -0.15165213 -0.039053027 0.54780734 0.6044535 -0.42382836 -0.41098836 0.062455628 0.65268135 -0.7208963 -0.6020525 -0.22032338 0.53528744
1407545512 1.6494318 -0.9125371 -0.14183198 -0.64361435 0.14905973 -0.47219026 0.051538248 -1.1211541 0.014821171 -0.25077045 0.6001615 -0.9355136 0.082983926 0.23298238 0.3113174 0.38306153 0.9084916 0.038620323 0.5254594 1.4877634 0.33415705 1.2411883 -0.4495907 -0.6720483 -0.4918727 0.33502093 -1.846166 -0.4003209 -0.37868178 -0.15457796 -0.17323136 -0.052039135 0.2513434 -0.5992796 0.20187396 -0.35513377 0.20233905 -1.2640966 0.24251544 0.8622042 -0.6218468 -0.054530043 -0.03711435 -0.40144888 0.8751068 0.93752205 -0.6054704 0.3503543 0.687801 0.84741205 0.79861236 -0.14219362 -0.13882919 -0.5319879 0.041220322 -0.6254776 0.13064906 -1.1930109 0.06716571 0.42690825 -0.8203563 -0.8707714 -0.019738648 0.1821542
6778426616 0.4723954 -0.65120894 0.3174496 0.17013595 0.6219321 -0.50102824 -0.8494189 -0.9212766 0.36660555 -0.19791463 1.495689 -0.02255282 0.33657393 -0.88950825 0.21957456 -0.11458591 -0.36117926 1.0069813 0.7779271 1.0632648 -0.8155468 1.0360259 -0.78887266 -0.44480306 -0.095775716 -0.21752043 -0.14235444 -0.29268438 -0.941729 0.22919294 0.10723024 -0.23641688 -0.06403151 -0.32667312 -0.27717513 0.37936482 -0.10517472 -0.2145186 0.680613 0.024793444 -0.6230121 -0.9269629 -0.5125087 0.28310376 1.2550945 0.2501943 0.043984674 -0.47051826 0.2553226 0.69866765 -0.5304217 0.16856335 0.11039839 -0.024116356 0.76020724 0.3690379 -0.69557214 -0.14112233 0.058365766 0.8955532 -1.3004525 0.60375553 0.5455143 0.12558296
121900958 1.1748782 -0.5924246 0.8194225 0.010865052 0.32576093 -0.99952495 0.27162623 -0.561574 -0.21191593 -0.91844076 0.97602 -0.89518136 -0.19932415 -0.82110924 -0.51704574 0.5377993 -0.7658866 0.17193852 -0.1145905 0.6496811 -0.35868898 0.6689273 -0.08752179 -0.6307669 -0.68463594 -0.43068346 -0.5425214 0.6497566 -0.21621507 0.25238112 0.009990896 -0.33993596 -0.22994117 -0.90525323 -0.53591126 -0.13240659 -0.63374096 -1.4518745 1.3446159 0.006656048 -1.0978333 -0.7074118 -0.5449671 -0.4402657 1.1124285 0.24742168 -0.093929656 -0.17014796 0.65775084 2.2963068 -0.74328697 -0.022181666 -1.5923308 0.18441951 0.24101043 0.011212793 -0.55016464 -1.3050126 0.18952142 0.16620469 -0.86772865 -1.538625 0.5895078 0.6392852
1210661299 0.4428307 -0.41568753 1.8265126 -0.5215595 0.6427215 -0.2051675 -0.9336315 -0.2246706 0.24597251 -0.7437201 1.0563551 -0.059968065 0.9453688 -0.9957648 -0.19439302 -0.82142234 0.06539542 -0.06600797 0.7815503 1.0919194 0.1586724 0.7151427 -0.6749969 -0.30440992 -0.7326469 1.3672863 -0.47657403 0.86465335 -0.91512394 0.23959915 -0.46882805 0.32760593 -0.3587528 -0.33835998 -0.23548117 -0.34058318 -0.0050776624 -1.4974049 0.5697636 0.065805405 -0.6078562 0.34284517 -0.0025256625 0.48816594 -0.19243431 0.19942291 0.73055637 0.13490403 0.115890466 0.21113506 0.9771542 -0.4856325 -0.119359516 0.08621406 -0.08700365 0.25316057 -0.1600747 -0.75298995 -0.2150221 0.8901987 -0.632724 -0.45520505 0.56703556 -0.99354947
150996495 1.0809467 -0.4174163 1.2925313 -1.1998552 0.4743684 0.30742666 0.8866021 -0.1565814 -0.08511299 0.41392672 0.18021819 -0.4169165 0.6356993 0.09557433 0.110401586 0.20483038 -0.6946488 0.4035251 -0.8123187 1.2210563 -0.12505925 1.3295295 -0.8895702 -0.6098308 -0.66790354 0.6386589 -0.22941639 -0.5568891 -0.2836676 -0.023061233 0.013749082 -0.37406075 0.15949172 0.43514723 0.25888744 -0.32123584 -0.668909 -1.2913586 -0.38777804 0.72214395 -0.098483585 -0.38983655 0.0035301258 -0.6742097 0.29103923 0.47598 -0.10174728 0.8323654 0.4016898 -0.118865795 0.3806204 -0.76735437 -0.7758112 -0.27613 -0.2582726 0.5449006 -0.6440033 0.21109794 -0.3481934 0.10230577 -1.5348505 -0.2950076 -0.7287258 -0.15842947
1978655414 2.3633418 -0.16912375 1.3078967 -0.70268446 1.4121515 0.029654438 -0.1608189 -0.71025616 0.66388184 -0.7265065 -0.5948463 -0.14805906 -0.14297834 0.017138308 0.12595215 0.005980411 -0.9791214 0.56344813 0.2236882 0.5750261 0.42276102 1.3140576 -0.62640345 -0.28678453 -0.6459857 0.13695559 0.06389619 0.9818252 -0.14305155 0.061087962 -0.8292588 0.2411207 1.1582917 -0.6689888 0.19282244 -0.8096919 -0.77081275 -0.45799714 -0.39972368 0.4232047 -0.30270863 -0.20599827 -0.7060674 0.12565778 0.5813979 0.3106817 0.24373324 -0.12814778 -0.5533823 0.3745739 -0.28002888 0.5264305 -0.051265128 0.2474041 0.11177144 -0.15732573 0.4904008 -0.32043663 -0.49859127 0.57535607 -0.7165069 -0.17933305 0.8255395 -0.46612158
3321329745 1.0324858 -0.37970585 0.9258565 -0.6663274 -0.5095119 0.6196592 0.30809966 -0.124860555 -0.37869868 -0.08052746 0.4507543 -0.52287644 -0.8115211 -0.5484086 -0.98909664 -0.7308874 0.16076775 -0.37608147 -0.5376751 1.05593 -0.27020735 -0.42923793 -0.5815548 -1.414261 -0.3343375 0.8372309 -0.614665 0.49851868 -0.07527361 0.053002816 0.6362232 0.4135753 0.49158123 -0.27099398 -0.8033791 0.18520692 0.42702413 -0.6710968 -0.3032946 -0.37547418 -0.19649377 -0.22141661 -0.03329832 0.13896082 0.31662703 -0.33431098 -0.45872194 -0.56783813 -0.9895584 0.22384572 0.4249884 -0.16473415 -0.09438775 0.19080605 0.1884426 0.9426485 0.2681358 0.6690314 -1.0923705 1.0087414 -0.8700914 -0.54061043 -0.8146801 0.3576574
317261080 0.6975519 -0.82543606 1.0787416 -0.028808506 0.7302941 -0.74046 0.4538093 -1.0734476 0.20282997 0.027419185 1.2768122 0.17204216 0.80318683 0.12657164 0.06501718 0.7554552 -0.2711591 -0.20249677 0.48399657 0.82118917 0.7779335 0.47739 -1.0067949 -0.47584796 -0.2508452 0.473785 -0.6040433 0.8736483 0.12148725 0.10050778 -0.6811426 0.17354265 0.2680954 -0.13746853 -0.029441323 0.40498215 -0.25288686 -1.274788 -0.2119047 0.47374025 -0.6370863 0.04570031 0.07072677 -0.05475303 0.5040491 0.1998944 -0.4679407 -0.13578394 1.0396166 0.8834626 1.4092156 -0.523494 -0.5767857 -0.61922026 -0.18201193 0.50317645 -0.3608871 0.47077867 -0.8623147 0.4745791 -0.5699044 0.36401492 0.059586518 0.02069137
264120067 1.2574799 -0.15720168 1.3199683 -0.67638844 0.4776984 -0.5698448 -0.72219443 0.15345272 -0.1988196 -1.3945901 0.5105725 -0.22794808 -0.28399712 -0.4832152 -0.6982693 0.0018375425 -0.719412 0.23789524 -0.26772806 1.8025818 0.7995659 -0.8914617 -0.49084654 -1.9518938 -0.7467844 0.38368884 -0.9133161 -0.58709085 0.09636466 -0.004460726 -0.35646155 0.5069449 0.757341 -0.97000664 0.31239724 0.5298085 0.42427275 0.1717884 -0.5074141 0.29880577 0.05812384 -0.8910385 0.07556323 0.85764396 0.91159356 0.77073103 -1.039506 -0.44869712 0.5541735 0.82976323 -0.42859834 0.557287 -0.37200293 0.6584053 0.8423829 0.36383793 0.39068016 0.2693799 0.045937244 -0.5780025 -0.6753289 -0.12693353 -0.16936979 0.43028462
318172995 0.7535049 0.32658914 0.45403132 -0.29951134 1.470392 0.27929157 -0.1878526 -0.22213757 0.7403578 -0.8043493 0.4869377 -1.0257113 0.4657361 -0.2817457 0.117889814 0.6984651 0.1294111 0.44285634 -0.21380389 0.47070518 -0.29986295 0.24609397 -1.1849712 -1.8031361 -1.3647661 0.73666525 -0.52505314 -0.5044063 -0.15328409 0.068435796 -0.23411183 -0.35972816 0.23462448 -0.115409754 -0.7840669 -0.54878134 -0.06337094 -0.9261672 -0.19633828 -0.31198233 -0.2738853 0.7357262 -0.22151527 -0.15032168 0.7324749 -0.24567588 -0.06211301 -0.2603013 -0.1519593 0.51079774 0.099730425 0.3014787 0.29170272 0.7998837 1.1688327 0.5077677 0.66969943 0.75798357 -0.6885057 -0.53321224 -0.6948136 -0.6052487 0.054653782 0.013760481
837231066 0.6864248 -1.2456969 0.23796411 0.25279194 -0.15612417 -0.3818533 -0.3724917 -1.1284837 0.3625634 -0.6746682 0.8336624 0.6274422 -0.30013832 -0.9153647 -0.11580571 0.28872317 -0.963661 0.11760724 0.8159107 1.2690015 -0.60057586 0.6686349 -0.8300169 -0.93800884 -0.05657794 -0.32600784 -0.9566498 -0.17035335 -0.5867663 0.52148324 -0.5505308 -0.6129903 0.2186479 -0.25783092 0.47223684 0.0102090705 0.5309771 -0.9614049 0.1018981 0.048414487 -0.27049428 -0.37489888 -0.3303828 0.5881395 1.2116684 0.6273959 0.091440655 0.3258572 0.23557228 0.34482253 -0.47017193 0.013233768 -0.30068886 -0.1903869 1.1575911 0.83787555 -0.62128836 -0.48198965 0.050457835 0.7972319 -1.7236677 0.44198906 0.9765459 -0.10875259
318731897 0.6550065 -0.7274647 0.924243 -0.25503516 0.7760863 -0.67840916 0.57750094 -0.7674841 0.30556887 0.12693584 1.1290636 -0.108806945 0.81724584 0.04657391 0.02732687 0.71961224 -0.36230683 -0.41836464 0.75890195 0.8520679 0.50400007 0.42388073 -1.0477207 -0.5618552 -0.21115805 0.55554426 -0.57491404 1.0028863 -0.19578172 0.13910426 -0.73841745 0.106733166 0.28389597 -0.18031277 -0.06841455 0.3689772 -0.47120184 -1.4488124 -0.39007837 0.5620783 -0.63803124 0.13269837 -0.21879129 0.058812845 0.5192401 0.05572604 -0.43211776 -0.299871 1.1857998 1.009987 1.3466194 -0.47328827 -0.51571393 -0.7093606 -0.25353923 0.3028202 -0.21025515 0.557276 -0.85543036 0.5594939 -0.6339594 0.55449444 0.20951895 0.05976991
2890036622 0.9105085 -0.31215918 0.9883325 -1.0520412 0.11080243 0.1851723 -0.28273028 -0.7990657 -0.4137132 -0.73088336 0.48038113 0.043818418 0.64619064 -0.65524244 -0.15758094 0.0077885534 -1.1468987 0.38717076 -0.13246937 1.1158068 -1.1482184 -0.8389887 0.67576414 -1.1110553 -0.46698764 0.01195394 0.29184422 -0.51347333 -0.2620313 0.23680489 0.088101946 0.82691616 -0.7195065 -1.1346815 -0.3181696 0.430639 -0.38321012 -0.015451099 0.9501784 0.40576243 0.41370186 -0.339745 -0.41266915 0.008783571 0.4426804 1.1218026 -0.57537365 -0.5911371 0.43175855 0.20209132 0.09914772 -0.12280761 0.25759214 -0.30396038 0.11666116 0.7570427 0.7988359 -0.23135403 -0.23915637 0.6602719 -0.7119108 -0.7481842 -0.26031914 0.5691316
1377658182 2.0754478 -0.04362341 0.91926444 -0.5519099 -0.3433962 -0.01679164 -0.53150207 -0.52823275 -0.40515232 0.2298424 0.88161623 -0.3090243 -0.49840748 -0.832212 -0.50940245 -0.33824313 0.33415017 -0.5109735 -0.2470451 1.3142396 -0.08196844 -0.1419135 -0.6594651 -0.7077337 -0.78180945 0.5496263 -0.33676818 0.38455686 -0.8641874 -0.99311787 0.08757155 0.64096904 0.31194502 -1.0586653 -1.4364598 0.11001527 0.45070687 -1.1173165 0.14007133 -0.3240487 0.34764355 -0.12175425 0.044079132 0.344177 0.44850972 0.11113089 0.53673327 -0.4070934 -0.4426211 0.3074299 0.76204056 -0.3424738 -0.01409924 0.025067568 -0.14983834 0.39712846 0.040604036 1.6502972 -0.85048074 0.437586 -0.8904558 -0.47944185 -0.58323437 0.08505841
837233390 0.8539249 -1.4599142 0.7822719 -0.13205686 0.5127795 0.11378172 0.27022558 0.005105587 1.0985383 -0.41362634 0.22167216 -0.42154682 -0.26716864 -1.1424605 -0.0770813 1.3612119 -0.19697621 0.2622312 -0.35860497 0.8535168 -0.22374211 0.952817 -0.54780227 -0.3049023 0.31811422 0.50217545 -0.2707568 -0.33200336 0.4882494 -0.19980113 0.11959387 -0.39797628 0.17380014 -0.8499546 0.057379264 0.45017833 0.18951352 -0.7326026 -0.6626432 -0.2700746 -0.12319228 -1.1099883 0.05575192 1.0695366 0.87154937 0.18287739 0.0062906677 -0.9739434 0.35955253 0.8705816 -0.24298073 -1.1856079 -0.037320774 0.5797566 1.149898 0.5820218 -0.27807125 -0.5797707 -0.5740696 -0.100914456 -0.9874892 0.1185119 0.8888812 -0.21759385
317261557 0.85172534 -0.6582516 0.340398 -0.38537365 0.2595532 -0.15544723 0.6124901 -0.07731012 0.50238174 -0.7426782 -0.21798594 -0.31203812 -0.66201895 -0.19004174 0.17117283 1.1945418 -0.53546673 -0.23076934 0.045513526 0.7276069 0.15999418 1.0538006 -0.87774634 -1.459 -0.071386375 -0.25472227 -0.22919668 0.6341247 0.2190288 0.18872027 0.35925257 0.36186674 0.20765014 -1.0108578 0.4278183 0.13362941 0.13938183 -1.2828093 -0.40796146 0.5760286 0.14369111 -1.0135758 -0.31650022 -0.009039398 0.6890743 -0.1956535 -0.72758496 0.4651582 -0.07435237 -0.21604699 0.65153444 -0.95732987 -0.7824555 0.40905705 0.5150617 0.68523 0.8000492 0.18232842 -0.72114265 0.38272482 -0.36564046 -0.42568585 0.6639171 -0.29403102
2934720374 1.1129887 -0.3758811 1.1293743 -0.80325717 -0.7178297 0.6821307 0.17670105 -0.18761368 -0.2175807 -0.32371795 0.4802723 -0.53301275 -0.732686 -0.48855522 -0.8885046 -0.7459178 0.15945417 -0.346014 -0.63448143 1.1032025 -0.26106963 -0.38681564 -0.59160334 -1.4440025 -0.35133898 0.8618469 -0.69985604 0.30122557 -0.02935575 -0.048441716 0.5203727 0.32552192 0.6012579 -0.3810496 -0.6894836 -0.027354581 0.5650835 -0.63538295 -0.31524247 -0.39507878 -0.19006045 -0.41533437 0.09608479 0.024880882 0.31357107 -0.3431447 -0.63253725 -0.40775695 -1.0158986 0.070691064 0.26227304 -0.0043855994 -0.0097869905 0.2342532 0.102264024 1.1903199 0.12110336 0.36930943 -1.0880057 1.095074 -0.8001127 -0.5559444 -0.68426734 0.3246826
3321329744 1.7562838 0.039711833 0.8412804 -0.5597215 -0.20033929 0.05212169 -0.44745687 -0.30502436 -0.59721404 0.08832346 1.0014652 -0.41950026 -0.43587127 -0.7161885 -0.6822001 -0.36412913 0.299764 -0.43163007 -0.3227885 1.3370829 -0.13739991 -0.3235179 -0.71283877 -0.8627951 -0.7323487 0.6489563 -0.2932288 0.43542543 -0.7732941 -0.81741804 0.27183846 0.57033324 0.427662 -0.9220334 -1.228791 0.29777938 0.47774446 -1.0179878 -0.014271917 -0.3597952 0.29891476 -0.07105666 -0.10843282 0.4765721 0.38930717 0.18891491 0.33864352 -0.49917167 -0.45000476 0.27032307 0.54292613 -0.17457187 -0.018096497 0.13387711 -0.10288789 0.38665074 0.067720816 1.6059023 -0.9051778 0.351404 -0.7268084 -0.458471 -0.6560314 0.0072033433
1386466637 0.9228188 -0.8642483 0.54789376 -0.3804124 0.111667275 -0.16400586 0.7358428 -0.30626345 0.52972776 -1.0317552 -0.10745576 -0.45387256 -0.63303494 -0.6318079 0.26212376 1.4035736 -0.17407672 0.12580384 0.08933712 0.6366867 0.32107282 0.89683354 -0.8524393 -1.0979972 -0.26211247 -0.13935271 -0.21785395 0.4002666 0.4544094 0.25671312 0.043460287 0.23324607 0.20365837 -0.988748 0.6336328 0.020679604 -0.063300006 -1.1168116 -0.5266075 0.45208612 0.08843166 -0.9623382 -0.39573467 0.35021222 0.1395637 0.18492118 -0.54858047 -0.21278888 0.40726167 0.019698648 0.3621895 -0.69401646 -0.90785336 0.47789162 0.71890736 0.8811971 0.69446373 0.07272206 -1.0076827 -0.11706151 -0.09088653 -0.6038823 0.8957133 -0.13178428
251011467 1.3043616 -0.73771244 1.3136951 -0.30710897 -0.09163869 0.7198835 -0.1401221 -0.6677448 0.7536144 0.69664454 -0.5171814 -0.07047133 -0.17460348 -0.37254405 0.40195683 0.2612935 -0.4837423 0.33519554 0.07499652 1.5956686 -0.58548075 -0.12738168 -0.46670073 -0.2552505 -0.6206205 0.2523375 -1.0145185 0.2753919 0.8870298 -0.21599847 0.457362 -0.120544665 0.43132994 0.25913668 -0.89071846 -0.41622776 -0.67241025 -0.9301747 -0.21917976 0.20615281 -0.8464533 -0.9382631 -0.060765997 0.43453014 1.347017 -0.012388194 1.0404887 -0.53224266 -1.5112247 0.22190568 -0.53112894 -0.30844733 0.4806687 -0.50540555 0.8921496 1.7290367 0.2354898 0.24216738 0.40782493 0.41578603 -1.8648957 -0.92136735 0.13261814 0.32392615
1093857702 1.0937246 -0.6117 1.1854367 -0.7337077 0.8113318 0.07068252 1.3040874 0.02507194 -0.38448396 -0.26185405 0.3800737 -0.20768441 0.43648177 -0.7241276 -0.12024996 0.12727655 -0.4710171 0.008050359 -0.6484907 0.4169289 -0.8203725 0.689368 -0.5078437 -0.67344946 -0.62260664 1.0364088 -0.027066533 -0.5115386 0.6550615 -0.35172933 0.48868275 0.9149738 -0.10192686 -0.33884484 0.0411845 -0.06310323 -1.2512157 -0.4966086 -0.38616565 -0.041139714 -0.75696594 -0.59558254 -0.3180149 -0.57094884 0.22288656 0.84138393 -0.6698026 0.79323035 0.33927265 0.45707303 0.0597411 -0.35929787 -0.41417348 0.6073822 -0.40286782 0.62980247 0.014548076 0.016965754 -0.91660875 0.22855696 -1.6766434 0.48076704 -0.1524307 0.08513498
412477273 1.112228 -0.61871916 1.3744127 -0.36229253 0.66290426 0.8278766 0.13405281 -1.0725217 1.0311131 -0.7001614 -0.06065555 -0.6501613 0.47030178 0.5756852 -0.20504683 -0.41515884 -0.83198786 1.2455701 -0.12124813 1.3419623 -0.30746725 0.22049837 -0.10621262 -1.2151786 -1.2458898 0.20210303 0.20537342 -0.50336874 -0.20008883 0.2355823 -0.20969959 0.9061189 -0.9358315 0.07449397 0.36483377 0.13463587 -0.5511008 -0.8607161 -0.5421424 -0.18100445 -0.18157837 -0.39410928 -0.48063487 0.30261213 0.47100785 0.90897274 -0.58293474 -0.63593143 0.50822896 -0.23061173 -0.043099422 0.76065385 0.41225836 0.4557351 0.5751195 0.7153585 -0.24040529 0.519764 0.7311793 0.3842397 -0.82822686 -0.26687527 1.5422261 0.6156228
845260946 1.469764 0.18929863 1.5412632 -0.17344274 0.425842 -0.37778443 0.14489217 -1.565758 0.4027335 -0.10631636 0.3158229 -0.77174354 -0.4274189 -0.96857667 -0.16994813 0.90582156 0.13279955 -0.060546823 0.43863347 1.7145507 -0.6399144 -0.39611572 0.47414356 -0.8139825 -0.4535134 0.4422307 0.09191119 -0.23125562 -0.23095198 0.4645354 0.72143424 0.6277637 -0.33878627 -0.7398687 -0.8379593 -1.2143829 -0.02682652 -0.9057511 -0.58893913 0.51476043 0.1449962 -0.17393361 -0.99354935 0.8524931 0.5903629 0.05231671 0.046614185 -0.3472165 -0.3820735 -0.0392151 0.17938621 -0.38028428 0.11992903 -0.6097477 0.9748594 -0.5257136 -0.6898429 -0.16048992 0.079861544 0.24752474 -0.7893108 -0.17729728 0.25954318 -0.23410437
5123751045 1.230668 -1.0509607 0.33297014 -0.76694006 -0.011013355 0.13637152 0.061413713 -0.6927217 -0.6913506 0.096260905 0.9884185 -0.93577784 0.8931972 -0.42777592 -0.44479463 0.6580815 -0.07022185 0.48266497 0.5540777 0.5519675 -0.09262048 -0.024478758 -1.0784531 -1.0423976 -0.8866572 -0.6548024 -1.5420887 -0.039008718 -0.3011153 0.5028717 0.9163828 0.60113513 0.88430023 -0.46300304 0.15733537 -0.90123117 -0.42533997 -0.35194722 0.8577787 0.35718292 -0.053101853 -0.41762868 -0.61943537 -0.005390662 -0.03636407 0.24232902 -0.20947072 -0.50917095 0.29196444 1.1333644 0.64075017 -0.190155 -1.0232091 -0.057156164 -0.30793434 0.15945487 0.52856094 0.54443026 -0.9581424 0.72112375 -0.1657661 -0.45518652 0.3064788 0.43078196
5181260989 1.0949897 -0.3860767 1.251429 0.22835751 1.2438669 1.0565149 -0.7459683 -0.5944283 0.7842345 -0.33293912 0.8538323 -0.62236184 0.2326076 -0.21170251 0.69631964 0.78849924 -0.6588804 0.124301046 0.076657444 1.3867539 -0.21221428 0.22413509 0.051765062 -1.0450273 -0.26863772 -0.55338407 0.23463418 -0.197646 -0.5901928 0.15596572 -0.32214454 -0.62165916 -0.26524106 -0.48904634 0.26325488 0.3371596 -0.8882213 -1.1651393 0.44761047 -0.28178775 -0.34091574 -0.6272118 -0.4682509 0.24611436 1.0302055 -0.4911922 -0.28087386 -0.022710947 -0.33056948 0.004826124 0.19459866 -0.75580734 -0.103326 0.12309283 0.59179646 -0.1544187 0.32710886 0.47562748 0.9644702 -0.5090284 -0.9621035 0.41101018 0.831889 -0.61150724
139803613 1.0273333 0.08865732 1.2685282 -0.3401463 -0.19383106 -0.47080287 -0.13420254 -1.1892797 0.8099978 -0.8015061 0.7607108 -0.19246672 0.70738876 -0.03509521 -0.7179942 0.23878622 -0.34124893 1.160104 -0.23970804 1.5350529 -0.41049692 0.25992513 -0.15724675 -0.551559 -0.42528725 -0.41961205 -0.24938957 0.84247166 -0.7090718 0.7190499 0.5517227 0.32974112 0.3288759 -0.058935057 -0.3858167 0.6558063 0.64556974 0.33212343 0.29538575 0.020592222 0.42258006 -0.84588724 0.6871248 0.18530582 0.08148454 -0.2344631 0.065794885 -0.31160405 -0.21378452 0.8165729 0.23253578 -0.57083803 -0.44219598 -0.32800266 -0.28494254 0.97372985 -0.061484974 0.022598207 -0.7314606 0.12511066 -0.9483049 -0.22918901 -0.34212616 -0.57554764
679782969 1.3754704 -1.0067526 0.44282812 -0.8529217 -0.12655722 0.050055075 0.32697782 -0.7199737 -0.6037954 0.15869592 0.88668394 -1.0431931 0.9468173 -0.35922992 -0.5330961 0.43928742 -0.10504963 0.6653607 0.66820645 0.4934915 -0.21620004 0.13984938 -1.0577775 -1.2148165 -0.70617765 -0.88683546 -1.3456815 -0.22161207 -0.23369496 0.4421733 0.8802862 0.4888238 0.999462 -0.4436325 0.07014706 -0.9639357 -0.5098921 -0.34247845 0.6578966 0.40440246 -0.19050667 -0.49609655 -0.5871397 -0.056005597 -0.0635939 0.2576977 -0.24913508 -0.31813893 0.26010725 1.3246228 0.6647775 -0.11617967 -1.1518347 -0.18088387 -0.278529 0.30360097 0.457544 0.47835833 -1.0569893 0.92546046 -0.14003848 -0.4215109 0.25200123 0.47385857
257595497 0.71105444 0.32015127 1.3256922 -0.7887847 0.17850457 0.055275526 -0.806681 -1.0033029 0.04799333 -0.7541323 0.47904757 -0.0796338 0.20757273 -0.727943 -0.30614072 -0.24553148 -0.17473735 -0.1480757 0.07214717 1.1348786 0.25302866 0.047168206 -1.0452161 -0.34033522 -0.51853395 0.77421 -0.77340907 0.5375033 -0.14265354 0.8536897 -0.19861682 0.16734748 0.62808955 -0.25406507 -0.10418157 -0.30075452 -0.3409377 -0.8074033 -0.24259333 -0.13906303 -0.066669725 -0.70946777 -0.19183016 -0.17584886 -0.13965374 0.085485324 -0.7231216 -1.2141833 -1.0039731 -0.50561345 0.2902893 0.341949 0.52268 -1.0951902 0.22157219 -0.019957528 0.96255416 -0.18140067 -0.3719521 -0.45675746 -1.1361727 -0.1883823 0.45833072 -0.17923513
121894621 0.814177 -0.12454678 0.91137224 -0.36011726 0.27326012 -0.82925576 -0.020573158 -0.081519365 -0.6193104 -0.40991277 0.8390655 -0.786898 -0.4329374 -0.542649 -0.011337043 0.20180912 -0.31485403 0.43004704 0.10932747 0.22917847 -0.0408442 0.52999073 0.10644897 -0.5534073 -0.21807098 -0.0482406 -0.5435897 0.28433767 -0.38059574 -0.19821617 -0.46926975 0.054255024 0.24212514 -1.0260724 -0.93567806 0.5977664 0.22105525 -0.8812438 0.3269157 -0.062323958 -0.178201 -0.06003828 -0.9027871 -0.7208233 0.95732594 0.077576295 -0.10003454 -0.032609314 0.5418253 1.8638762 -0.24493769 -0.10634907 -0.86731446 0.103380576 0.7233414 0.36907196 0.36174867 -1.2252249 -0.5398341 1.0851585 -0.62710387 -0.8515151 0.0056934035 0.4930392
260547626 0.92464095 -0.4381723 1.1702582 -0.17610309 -0.53393614 -0.20125827 -0.45412502 -1.4014449 0.5608373 -0.7188882 0.099597566 -0.5202295 0.073734276 -0.6638794 -0.9210972 -0.8507039 -0.32674265 0.31456038 -0.12633191 1.558565 -0.0844718 0.027181037 -0.01352956 -1.4407772 0.20097291 0.55047226 -0.50572973 -0.6936176 0.15882471 -0.17000987 -0.55251825 -0.87206006 -0.1835201 -1.1539261 -0.11965114 1.1108658 -1.1320839 -0.8686274 -0.21559122 0.826713 -0.6917354 -0.29327053 -0.42152676 -0.059831828 0.8173178 0.22042112 0.49688682 -0.81088156 -0.8634174 0.5007897 -0.3991278 -0.83191186 0.5574959 0.41599914 0.6885068 0.85581756 -0.60759705 0.01760222 -0.5089726 1.002241 -0.5215113 -0.13073806 -1.0528108 0.9424412
321840503 1.3772966 0.4814772 0.75696814 -0.38967225 -0.9711264 -0.03745679 0.021112587 -0.34756565 0.051847532 -0.6159983 0.6262616 -0.57088447 -0.2089428 0.15672335 -0.4626076 -0.16416967 -0.22733355 0.113955624 -1.1144507 1.673368 0.8045552 0.31658664 0.012234731 -0.5276267 -0.19012119 0.22620466 -0.8620484 0.84709334 -1.1412619 0.10320356 0.16560537 0.2022742 0.050075214 0.025514571 -0.17052461 -0.3203411 -0.7450688 -1.0267106 0.38146454 0.7146903 -0.1542669 -0.19270281 -0.8992574 -0.0639307 0.30860698 0.3684809 0.28467894 -0.23195374 0.43067423 1.427735 1.137666 0.22377166 -0.55799586 -0.020560585 0.03583493 0.24124612 0.21072024 0.29112712 0.07857083 0.03997887 -1.0023881 -1.1750566 0.97437346 0.050194982
321842237 0.62457633 -0.27220082 1.6824629 -0.7473688 0.5078196 -0.30014017 -0.07301708 0.007026257 0.94487584 0.061911665 -0.120495215 -0.66464263 0.36215407 0.3734872 0.11137537 0.8236741 -0.5813101 0.19844829 -0.2982686 0.859218 -0.26744026 -0.57288253 -0.33780143 -0.35978365 0.035277333 1.3759868 -0.5669642 0.07407574 -0.40273118 -0.49170485 0.6707658 0.9603638 0.2849616 0.25866705 -0.81850314 0.15697089 0.1056536 -1.4844104 0.8706613 -0.79213196 0.018586097 0.28463858 -0.5521042 0.3905046 0.6159457 0.36307827 -0.19583586 0.54849976 -0.0673736 0.8358319 1.3770518 -0.07616325 -0.6216158 0.46635276 -0.067253165 0.621276 0.076108806 -0.45431995 0.54042375 0.5072808 -0.43552986 -0.7826811 -0.3689918 0.08282936
315788650 0.89681965 -0.68163145 0.91477543 0.2903412 0.54774594 -0.32704413 0.49191567 -1.1956769 -0.01435846 0.37460676 -0.54644084 -0.8561595 0.88814753 -0.7823676 0.018240258 0.25230783 0.09972541 0.33513862 0.3979068 0.95589894 0.022307374 -0.13887466 0.20294262 -1.724018 -0.24564308 0.14645241 -0.5215438 0.35987115 -0.21098231 0.2871319 -0.00212715 -1.4117435 -0.3113142 -0.31247973 -1.033302 -0.5399267 -0.5178194 -1.2218668 0.11766732 -0.46619603 0.45012707 -0.6862604 -0.6735825 0.24287432 1.0375713 -0.04972501 -0.9572876 -0.42673078 -0.2716169 0.39074743 -0.6252498 -0.22952937 -0.23621921 -0.50825894 -0.58235353 0.760426 -0.015536784 -0.1840674 -0.50302273 0.2158117 -1.7231973 0.4225837 0.10966627 -0.13397652
139792417 1.4432532 -0.15250786 0.49979493 -0.18041253 0.6754486 -0.6881295 -0.6088642 -0.39270246 0.26221192 0.023316788 0.25471547 -0.36943838 -0.0026626338 -0.5494524 -1.0400523 0.5601848 -0.4971051 -0.1021539 0.36483628 -0.12312794 0.7923833 1.1665238 -0.014881193 -1.0124271 -0.44048947 0.25597855 -0.93726915 -0.54776543 -0.5149225 0.5986901 0.48288003 0.24326602 -0.009827672 -0.056312703 0.30755126 0.43915555 0.1478326 -0.8723224 0.9415896 0.025327012 -0.32482222 -0.6311734 0.44579417 0.43502605 0.268606 0.33165398 -0.2078218 -0.043137185 -1.2056581 0.5059669 0.5315374 -0.38757324 -0.8082595 -0.85974133 1.0158838 0.5373929 0.887372 0.7567533 -0.4691542 0.104216814 -0.33853915 -1.2567174 0.072444014 0.61379826
5857359329 1.279611 -0.7929942 1.2472689 -0.24069676 -0.11571746 0.8364731 -0.060586687 -0.66622543 0.9380116 0.707901 -0.5812311 -0.06272677 -0.11263931 -0.38597527 0.39679694 0.28782585 -0.61946857 0.2878124 -0.037672453 1.6288376 -0.57089126 -0.0779521 -0.4870524 -0.3249075 -0.59011436 0.20684694 -1.0212145 0.23748049 0.8071791 -0.22278826 0.42675418 -0.17921151 0.4847442 0.3121363 -1.0155791 -0.4068403 -0.6767761 -1.0027062 -0.16959433 0.030870719 -0.85262406 -0.8572025 -0.07335074 0.45941567 1.3434474 -0.0822393 1.142393 -0.6221857 -1.4752053 0.2206998 -0.5770391 -0.38266256 0.45139647 -0.5862324 0.9141143 1.7843984 0.21560958 0.2511221 0.41128343 0.5839246 -1.8677317 -1.0137545 0.15824445 0.29347894
149003558 2.7745554 -0.45098767 1.1813098 -0.6355607 1.0104613 -0.10025861 -0.14153212 -0.614498 0.049788408 -0.27330065 -0.30687127 0.14509186 -0.35598627 0.6419295 0.77999645 0.015744451 -0.990489 0.5308212 -0.05482924 0.6140275 0.24962832 0.7780147 -1.031869 -0.73544544 0.051817298 0.11849154 -0.17831607 0.9065447 0.009990972 -0.09900041 -0.66257 0.5276564 0.39972293 0.28733006 0.85783273 0.009247483 0.01249896 -0.70919317 0.42067936 0.23764445 -0.19411115 -0.45626307 -0.20819454 0.096577585 0.24125104 0.09717244 -0.32550302 0.07139395 0.08632365 0.019642314 -0.33283114 -0.22202885 0.063204855 -0.030451257 0.06066987 0.14527735 0.32412723 0.40691882 -0.83019114 1.4229053 -1.2708286 -0.08003221 0.6968645 0.13974774
260547613 0.95141035 -0.36107078 1.2086588 -0.21029724 -0.48411444 -0.20052974 -0.5263374 -1.3385001 0.6327454 -0.76389694 0.06262954 -0.5178089 0.012646463 -0.64111215 -0.92563206 -0.9482749 -0.31094804 0.2809755 -0.1508906 1.7051224 -0.1420678 0.0016088458 0.00024484802 -1.5081959 0.15058248 0.52909786 -0.56487924 -0.8105227 0.17242952 -0.23703152 -0.5849607 -0.78196526 -0.22513674 -1.1578612 -0.16859537 1.1412716 -1.1398598 -0.89357036 -0.25578988 0.85847205 -0.71950704 -0.31801528 -0.4755544 -0.09170431 0.792606 0.29033914 0.50710773 -0.91421205 -0.8855203 0.539369 -0.44189796 -0.87516797 0.7042833 0.36866617 0.70279646 0.9127758 -0.6770267 0.015331395 -0.6130231 0.9752426 -0.5503485 -0.12443857 -1.0881356 0.9711203
226038149 1.1091368 -0.33210352 0.9386102 -0.28454697 0.33167928 -0.855604 0.12572987 -0.17791924 -0.7171219 -0.6167784 0.8732422 -0.5686256 -0.4321646 -0.46469143 -0.2911435 0.103769846 -0.6560622 0.2976788 0.16356695 0.13114828 -0.069316015 0.32911244 0.029036632 -0.5560455 -0.16957133 -0.20537545 -0.51975393 0.31298506 -0.38375482 -0.07370392 -0.39663425 -0.24359144 -0.09354647 -0.703976 -0.48813325 0.4528327 0.121661745 -1.1323317 0.8308272 -0.06289117 -0.57176167 -0.30534068 -0.8232335 -0.45781416 1.24109 0.22623415 -0.23868154 -0.08028041 0.50034004 1.998672 -0.5551352 -0.14815101 -1.097932 0.06363682 0.47012192 0.21946126 0.14873566 -0.9790742 -0.25343767 0.753631 -0.56076425 -1.0370718 0.46574968 0.5732711
1282433304 2.2793343 -0.2637996 -0.048846778 -0.58179003 0.23178051 0.03969197 0.041713614 -1.0106856 0.06548009 -0.06649687 -0.58328617 -0.9544975 0.21403429 -0.19731104 -0.76519936 -0.22576173 -0.030369397 1.3336719 -0.19120373 1.1472714 -1.2595026 0.40967086 -0.5218206 -0.83211863 -0.23016988 0.5579162 -1.1616814 0.28355885 0.36027095 0.19352253 -0.5247733 -0.5759779 0.5453176 0.391913 -0.5146107 -0.18725048 -0.45844057 0.14602391 0.38142836 -0.4076207 -0.25022826 -0.9995459 -0.50241804 0.46745637 0.3369005 0.2519475 -0.017587803 -0.29434323 -0.17394656 0.72978514 -0.1982795 0.12786679 0.96746933 -1.1133386 0.52382207 0.5360706 0.7715598 0.010492012 -0.6007169 1.1136358 -0.8697522 -0.8397645 -0.0866464 0.41156122
3328989003 0.05972102 -0.5378311 0.6031861 -0.9934772 1.213717 -0.44253123 0.31813565 -0.52787876 -0.5786798 -0.13536794 0.7471938 -1.7326936 -0.52177453 0.0014172995 -0.12707245 0.34586468 -0.28763503 -0.19400446 0.5075716 1.0376701 0.10360396 1.116176 -1.362935 -1.1494633 0.37913677 0.74800736 -0.76843077 -0.704431 -0.4447474 0.43116707 0.047823373 -0.07290997 -0.31077248 -0.6439259 -0.92858 0.650417 -0.3033547 -0.91622627 0.48098177 -0.44566768 0.3761066 -0.7077232 -0.78947645 1.130967 0.08996568 -0.11233848 -0.31647694 -0.32675105 -0.12792286 0.06642125 1.5663692 -1.0914217 -0.31286982 -0.8391157 0.28189874 0.9541013 -0.24549615 -0.14021695 -0.20414452 -0.9438318 -0.6628633 0.04049051 0.13394476 0.111686125
1388233291 0.5604844 0.67050135 1.5288591 -0.19589612 0.94206166 -0.40543896 -0.44530624 -0.96496975 0.15883547 -0.3749859 1.3712449 -0.9613557 0.4077448 0.14117104 0.33651134 0.19379076 -0.5758609 0.16669755 -0.9909331 0.34511063 0.4067117 0.38327637 -0.15894105 -1.0650178 -0.7976771 0.26508707 -0.86284137 -0.36543447 0.44237784 -1.04562 0.15130815 0.43144938 0.882629 -0.29720905 -0.8673684 0.24856533 -0.6132255 -0.4687144 -0.32636213 -0.141702 -0.48909253 0.06567296 -0.53140414 -0.7057582 0.49763036 -0.21628019 0.3360731 -0.5045774 -0.7303188 0.14066203 0.016799847 -0.22028922 -0.2235818 -0.13778357 1.4680264 0.37617585 -0.32284895 0.42513093 -0.8548549 -0.150668 -0.8635139 -0.30006933 0.6503858 0.3527457
1281838682 1.0220418 -1.1493292 1.0743 -0.22348806 0.23431368 0.07182625 0.09334926 -0.20929849 0.8314674 0.5272048 0.39255682 0.3172257 0.9428974 -0.9788994 0.37252998 -0.38378328 1.5556614 -0.28891188 -0.10878378 0.8293811 -0.5003254 0.76587033 0.019523656 -1.3267221 -0.1515543 0.50872505 -0.19141887 -0.3034872 -0.5800825 0.460512 -0.90368766 0.38931182 -0.6472105 0.14068842 -0.08953978 -0.3957727 -1.0466019 -0.67535555 0.32617837 0.3601311 -1.2701042 -0.7474598 -0.91153634 -0.032493677 1.053187 -0.4379128 -0.33303368 -0.06746766 -0.31605747 0.6255892 0.7302722 -0.38147342 -1.1093339 -0.032165017 0.276296 1.0850399 0.57322973 -0.6399551 -0.25043413 -0.20803775 -0.89944947 -0.22534738 -0.31134102 0.107596874
1653091922 1.6320885 -0.8470712 -0.14381291 -0.7311168 0.11170915 -0.59816706 0.13969348 -0.92482096 -0.04317586 -0.07020485 0.6874624 -0.7931759 0.07185275 0.14961131 0.3197581 0.36385518 0.89572346 0.034229998 0.51180226 1.4250114 0.42134395 1.1474112 -0.6144118 -0.7744353 -0.62265223 0.43190774 -1.873211 -0.4192686 -0.3556775 -0.05186178 -0.047495462 0.010495524 0.25732964 -0.42026135 0.2003791 -0.50790787 0.20920016 -1.2851275 0.35210225 0.8364576 -0.41696286 0.032229032 -0.050872322 -0.31362954 1.1016052 0.93443733 -0.7077851 0.4521718 0.5880319 0.9350732 0.7692624 -0.10427031 0.012294597 -0.4781833 0.10196205 -0.64734906 0.46629798 -1.0885236 0.15383057 0.2948785 -0.9823025 -0.82902324 -0.12938645 0.17872863
1516259192 0.73475623 -0.8205977 0.8320636 -0.1446361 0.4657543 0.10473958 0.38464555 -0.11126107 1.1172895 -0.8968056 -0.10728821 -0.08172696 -0.5989028 -1.2876433 0.12846859 1.1890415 -0.67762285 0.0755635 0.22379887 0.8927381 -0.12331002 0.83925426 -0.5972361 -0.5087954 0.17489648 -0.063094415 -0.39662603 -0.093269736 0.38216084 -0.057621345 -0.14926262 -0.12846312 0.11693008 -0.91758925 0.54881436 -0.08493599 0.072458625 -0.97494715 -0.7174495 0.50053126 0.029047098 -0.5589514 -0.24164896 0.9831213 0.23083211 0.3538974 0.1162227 -0.82274216 0.43898225 0.5791758 0.057363644 -0.8006102 -0.7540656 0.20636909 1.1064856 0.42554092 -0.14992097 -0.13038771 -0.78381497 -0.32417747 -0.55705094 -0.26852655 1.098245 -0.39014634
1494014328 1.277538 0.06375648 0.91902494 -0.74793416 0.5633435 0.15115163 0.32615268 -0.9330275 0.6731239 -0.88874286 0.53835076 -0.06001724 -0.21527728 -0.0006853283 -0.66251194 -0.4645469 0.12503532 0.40378726 0.7876692 0.70433384 0.16503048 -0.23926108 -0.028098656 -1.0472656 0.2806776 0.96780604 -0.69212 0.0007209348 -0.79391736 -0.4744788 0.19120243 -0.3166125 0.30862555 0.46507865 0.80089647 -0.504543 0.09578368 -1.1888975 0.034876015 0.16765176 0.24262933 0.09473352 -0.36768484 0.25004727 1.2287843 0.61782324 0.13414788 -0.03556706 0.4738343 0.42385322 -0.91936874 -0.368225 -0.8356418 -0.77829283 0.5352512 0.40198842 -0.14214885 0.6654928 -0.4747519 0.34911144 -1.220852 -0.45930964 -0.7445818 0.49331903
1392762441 1.3225985 -0.6526058 1.8877026 -0.5700392 -0.08867794 0.013169492 0.5249483 -0.67494196 0.9244603 0.19506113 -0.4143199 -0.30262032 0.4837359 -0.80506444 0.5678892 -0.022027457 -1.1090553 1.297276 0.124734536 0.9184322 -0.07522945 0.31306306 -0.026350299 -0.43788484 -0.7367273 0.16902637 0.1163822 -0.124485925 -0.15692107 0.9276557 -0.652043 1.1141852 -0.26659122 0.168897 -0.20999616 0.37231788 0.12537894 -0.5427269 0.54933774 -0.21400179 -0.34499276 0.09548264 -0.6239017 0.9686405 0.17203866 1.1884696 -0.29000464 0.1787882 0.22177799 -0.533019 0.65641505 0.4288317 -0.4880627 0.6045597 0.80834794 0.096933685 0.007631536 0.53194344 0.53894633 0.2939283 -0.84296703 -0.18036744 0.7193775 0.3059313
324288206 1.304373 -0.65301853 -0.16101052 -1.1230826 0.46251407 1.4731064 -0.65350145 -1.2306528 0.9366082 -1.107841 0.9760614 0.302212 0.07981407 -0.60796344 -0.5287767 0.64175695 -0.30150136 0.93397367 -0.41633895 0.71062905 -0.6666078 0.33146486 -0.6485623 -0.3357914 -0.7242503 0.7471121 -1.4692242 0.2380628 0.6240578 -0.34407017 -0.087383986 1.0514867 -0.01941101 -0.2851903 -0.57794666 -0.13777517 0.05513664 -0.19742584 0.13817975 0.26895335 -0.20437635 -0.20954314 -0.74635357 0.7358235 0.7743632 0.23528542 -0.9303639 -0.12228135 0.2800289 -0.024376264 -0.22090149 0.16037357 -1.0106931 0.6509642 0.24566096 0.2847953 0.1501208 -0.5265271 -0.5665268 0.15519807 -0.8586746 0.3254154 -0.31565097 -0.35917938
2187472426 1.0045948 -0.9813096 1.4701777 -0.3060944 -0.015007554 -0.21891013 0.18376933 -0.05506859 0.31921706 -0.2583208 0.07974888 -0.04435675 -0.10896309 -0.3943672 -1.2020204 -0.4011401 -1.3908107 0.0315146 0.46791464 0.9242743 0.2002648 1.1183739 -0.49029002 -1.250016 -0.2500173 0.30464116 -0.8262879 0.30898526 0.5761954 0.11355636 -0.5097024 -0.15114005 -0.13813657 0.14945725 -0.46638432 -0.7246757 -0.95938784 -1.0117519 -0.16596101 -0.7492281 -0.906925 -0.47432345 -0.6124689 -0.6166928 0.5074777 -0.16036095 0.06659845 0.31757325 0.5914204 0.5877801 0.12077554 -0.28055808 0.6667422 -0.939702 0.1344582 1.059989 0.3566844 -0.5983753 0.39643288 -0.26754385 -0.21440224 -1.3254023 -0.23828511 0.0035711168
893321536 0.7306136 -0.42911544 0.8857729 -0.059666213 0.35980836 0.6079284 -0.3102537 -0.045413923 1.1509418 -0.7783129 0.055446647 -0.08875186 -0.17741394 -1.2559041 -0.14915626 0.3019774 -1.0035369 -0.65285796 0.47980982 0.9477771 -0.2319265 0.9394002 -1.3147796 0.060427792 -0.04014317 -0.046456717 -0.4744181 -0.1433757 -0.3092748 -0.1424292 0.022381186 -0.07862844 -0.035537414 -0.6252487 0.059315417 0.07830134 -0.072756335 -0.6801339 -0.8376536 0.5249676 0.2897355 0.1405285 -0.5941771 1.092891 0.033659164 0.40821072 0.65626264 -0.23079585 0.6234626 0.4471926 -0.25619805 -0.38338062 -0.7787032 -0.5070479 1.0885228 0.8316578 0.21213251 0.09477213 -0.3038905 0.0134044 -1.1859262 -0.023941057 0.7371801 -0.17530258
878877824 1.3726742 -0.7835365 1.6213579 0.37527037 0.45705134 0.6052059 -0.37850845 0.29622382 -0.08697112 -0.46135923 0.076173276 -0.021795157 -0.09998733 -0.6071473 -0.15635337 0.6898522 -0.564851 0.914964 -0.8865748 1.315577 -0.22083648 0.6631204 -0.11410388 -0.9185175 -0.17479032 0.117083535 0.16054691 0.31589916 -0.11618369 0.72129685 0.045661155 0.41536057 0.2195123 0.43385756 -0.39917678 0.8916888 -0.13902973 -0.4371642 -0.45376247 0.37166944 -0.15812865 -0.46301132 -1.3498526 -0.41849193 0.6395905 -0.0070796544 0.02119613 0.18516386 -0.29508758 -0.30549276 1.2363904 -1.1423888 -1.2703058 -0.6535144 0.0319456 0.7359436 0.80410254 0.14999251 -0.16773732 0.20435032 -0.48634368 0.26704687 0.09522702 0.64985985
628182241 0.53415227 -0.59342253 0.50440276 -1.0766172 0.7372092 0.24010198 0.35479856 -0.2001993 0.9013908 -0.43933398 1.0950627 -0.5114977 0.8388753 0.73960716 0.31726214 0.44216472 -0.3906541 -0.40161413 0.27811566 0.7436348 -0.07595536 0.86468214 -1.3782458 -0.5074075 -0.02399168 0.5869226 -0.50111747 0.1849987 -0.12781999 0.13074902 -0.26604837 0.029253347 0.8424629 -1.1002904 0.48433354 -0.14055231 0.10239348 -1.3249369 -0.28690764 0.24198207 -0.99541706 -0.5970401 -1.0326188 -0.0038645528 0.2003531 -0.3955777 -0.20211227 -0.44571897 0.9753448 0.9231624 1.6731364 -0.08452235 -0.12880763 -0.315897 0.31645575 0.11347279 -0.52834094 0.4011112 -1.3552638 0.89625895 -0.8710262 0.23298837 -0.15887731 0.14564769
940718900 0.66080874 -0.43682253 0.53206885 0.5254708 -0.1984857 0.21157536 -0.40682524 -0.49426144 0.85613203 0.27515337 0.3597112 -0.33501095 0.08595359 -0.06623874 0.34172723 0.16811861 -0.33426014 -0.445482 -0.18625942 1.0979288 -0.45128074 1.1522309 -1.6303761 -0.86145437 -0.48845103 0.34291965 0.29679254 0.03927544 0.049445663 -0.0011763327 0.60430795 0.36694545 -0.06373333 -0.13715395 0.01918426 0.79327226 -0.18261464 -0.9436526 0.087099396 0.3231682 -0.048646785 -0.7501293 -0.43956664 0.15345946 1.1444926 0.22711554 -1.2256252 0.49924585 0.11111247 -0.6273605 0.96427065 -0.91962713 -0.07199571 0.4473101 0.8875295 0.6033407 0.37715903 0.24626517 -0.7342132 0.9748779 -0.73971283 0.63003945 0.004066082 -0.0799128
1781022774 1.2303213 -1.3103266 1.0547056 -0.26327348 0.6617448 -0.47974333 0.5969802 0.035283465 -0.114540696 -0.06569068 1.0399827 -0.49558476 0.51531667 -0.51245093 0.46919096 -0.3404795 0.2886495 -0.18149485 0.3082953 1.1511766 -0.1451862 0.0861394 -0.44973153 -0.08492369 -0.28590816 -0.42913386 0.4055011 -0.12527834 -0.05634476 0.49484417 0.035641383 0.4327739 0.14529414 -0.33237255 -0.91754323 -0.24967887 0.0814818 -0.30780232 0.21462423 0.7673007 -0.21873336 -1.1438037 -0.19772317 -0.26615927 0.3102801 0.025256708 0.58821684 -0.045626566 -0.8707489 0.6145085 -0.26813418 -0.8022029 -0.36026737 0.1474757 1.1776872 -0.06357125 1.0061615 -0.33111438 -0.7783178 0.39967653 -0.72228456 -0.21995951 0.24752149 -0.7796874
1519389271 1.3411443 0.25814188 0.40633368 0.9187217 0.36829486 0.23589717 -0.43235657 -0.32981062 -0.1534349 -0.11461929 0.06356186 -0.5687556 0.03642897 -0.052260235 -0.16350853 0.14529425 -0.14703073 0.74932927 -0.11988822 1.6903353 -0.503873 0.5922071 0.18684281 -0.6441599 -1.0348493 0.35195345 -0.88098574 -0.8105714 -0.010605608 0.75055563 -0.48300254 0.31872627 0.39267206 -0.5341889 -0.08266107 0.10737152 -0.38462317 -0.41773984 -0.34409362 -0.04442165 -0.09152365 0.11296853 0.31022844 0.07946307 0.073116906 0.09474786 -0.71465546 0.390447 -0.17452899 0.53335965 1.1206777 -1.1061007 -0.11034154 0.20354423 0.5317412 1.038269 0.7021775 -0.0565928 -0.23091656 0.17466618 -1.2090608 -0.8869724 0.10014035 -0.9164349
149004467 1.0787747 -1.0475653 0.9984593 -0.15917844 0.72237265 -0.4186746 0.6655027 -0.068169646 -0.13035099 0.14740372 0.80426234 -0.7783102 0.6177946 -0.5200846 0.5572345 -0.5213326 0.56686735 -0.36066043 0.33881384 0.9294271 -0.5330974 0.5404602 -0.17772366 -0.26237231 -0.055628203 -0.35148945 0.3461866 0.11271746 -0.2205162 0.4417237 -0.4191301 0.23450194 -0.2105727 -0.6156338 -0.7765759 -0.25354674 0.04019081 -0.14925882 0.0033817799 0.5164681 -0.31832114 -1.0127361 -0.26751438 -0.29063144 0.5341122 -0.10498662 0.4807985 -0.37903738 -0.40683785 0.49477768 -0.16441225 -0.7710492 -0.35647407 0.070551954 0.94889957 0.21029302 1.1671836 -0.73799026 -0.78724277 0.42382994 -0.7435795 -0.58328736 -0.09559005 -0.75901294
121893574 1.1180992 -0.7189412 0.79814756 -0.22787075 0.8371408 -0.36585805 0.4162941 -0.02278958 -0.11344545 0.3010821 0.79129344 -1.0328146 0.61382806 -0.64207774 0.7789187 -0.14644982 0.41110003 -0.24281146 0.33281264 0.81865484 -0.37406754 0.66218406 -0.4123381 -0.60669845 -0.08219598 -0.30456454 0.106806666 0.19122699 -0.11593615 0.37189245 -0.27553663 0.24017335 -0.2981238 -0.9451751 -0.7263425 0.12729616 0.2801654 -0.0891018 0.15437952 0.40507552 -0.04810944 -0.99144936 -0.038842045 -0.2678205 0.5688131 0.20230666 0.67625505 -0.5776589 -0.23461816 0.4411601 0.12849712 -0.66286916 -0.3053432 -0.049988527 1.0844759 -0.08450462 1.2372547 -0.57578063 -0.99375176 0.44087574 -0.6694614 -0.76156354 -0.27766445 -1.0204453
324283133 0.15101258 -1.3855 0.43174335 -1.1784229 -0.014190776 0.050003763 -0.10366961 -1.1417072 1.0313079 0.17714876 -0.33218238 -0.808099 0.43007657 -0.2701786 -0.05097617 -0.029730186 -0.46886498 0.8705711 0.73172426 0.54524046 -0.17275254 0.45886728 -1.2942567 -0.5880782 -0.21659812 0.40725297 -0.69939864 0.8274722 0.08854587 -0.16450015 -0.48789287 0.13218877 0.61757594 -0.35635483 -0.8293561 0.35391822 0.6133608 -0.6698942 -0.12367711 0.48936477 -0.3047543 -0.7550094 -0.7231943 -0.08897413 0.3430768 -0.3960392 0.24798313 -0.3371689 -0.33418477 0.47725147 0.82658875 -0.7525866 -0.49500546 0.1342507 1.7395703 0.1996754 0.23669794 -0.2533284 0.1284413 -0.25783044 -0.18603808 -0.48713103 -0.22020395 0.40360415
17421753 0.7027864 -0.5356163 0.88428825 0.2964684 0.55302453 -0.30576575 0.60892546 -1.2484375 -0.17322583 0.39438447 -0.5116312 -0.91059387 0.83496 -0.733474 0.13345028 0.42934352 -0.049015727 0.3555295 0.53027445 0.7712881 0.15110557 -0.13667232 0.17852126 -1.6832331 -0.26972762 0.04875708 -0.41526985 0.38884807 -0.3249859 0.15287147 -0.10903833 -1.2939204 -0.35015315 -0.29211733 -1.0238074 -0.37158388 -0.5314138 -1.2773662 0.03316742 -0.47377953 0.34023458 -0.80894125 -0.67979306 0.31543103 1.22312 -0.078831084 -0.8735633 -0.35846964 -0.2621891 0.5941628 -0.51104194 -0.15724513 -0.19876432 -0.50240564 -0.42071685 0.69869506 0.025394375 -0.10484312 -0.5554616 0.17052051 -1.9355336 0.5134154 0.032775793 -0.12947512
893353922 1.1232663 -0.56889534 0.88405824 -1.0024827 1.2450427 -0.40959415 -0.5615396 -0.34922478 0.37269154 0.11453773 0.03508899 -0.7950123 -0.4396165 0.102509186 -0.36364132 1.2567168 -0.6393207 0.70414156 -0.3182715 0.48415914 0.09274564 -0.6540594 -0.5075308 -0.9217727 -0.01129731 0.5478596 -1.1537565 0.43993244 -1.202456 0.7566433 -0.04070483 0.0899754 0.5730412 0.029106015 -0.52128357 0.118295304 0.2908819 -1.0817372 -0.17241453 0.39021224 0.18811198 -0.13642105 0.023475489 -0.007942274 1.0297241 0.19406044 -0.26166758 -1.035375 0.7747249 0.15278465 0.15427272 0.3070223 -0.6769057 -0.5283679 -0.32410797 0.39046338 0.45286262 0.31251016 -0.16851522 0.1933293 -1.0963411 0.82739985 1.1145453 0.089413
183456412 1.0789874 -0.47392082 1.5356107 -0.3578939 0.8476449 0.8894416 -0.58414215 0.03981676 0.5919087 -0.46991786 0.5176276 -0.5887769 0.24210073 -0.091774955 0.23725149 0.4588856 -0.20619756 0.058290146 -0.24810106 1.5751708 -0.1348216 0.0724602 0.13360026 -0.54330873 -0.2863958 0.038182218 0.39606917 -0.08256271 -0.3465633 0.044336975 -0.15601939 -0.37071764 -0.5849821 -0.114786744 0.32518753 0.020517249 -0.4377652 -1.3463578 0.3068882 -0.1612106 -0.35115314 -0.8770506 -0.3386411 -0.046197265 0.9705114 -0.44747737 -0.03546978 0.21512972 -0.4833653 -0.13286264 -0.7275666 -0.46297386 -0.0578497 0.12534715 0.42365184 -0.45708206 0.27949977 0.30890325 0.6031306 -0.25892827 -1.1730897 0.6161116 0.46622786 -0.5061386
896091649 0.5692489 0.20794421 0.47433364 -0.46941012 1.3082136 0.1865077 -0.49592975 -0.32730982 0.86758566 -1.2466751 0.32820734 -0.95812774 0.48337933 -0.53934485 0.023639869 0.966332 -0.10669722 0.6020339 -0.15023932 0.5175847 -0.4116243 0.5115716 -1.360366 -1.6206168 -1.2187558 0.55640787 -0.47248793 -0.41404328 -0.3135244 0.29412484 -0.37096322 -0.10892294 0.44196332 0.047948275 -0.5004193 -0.45653224 0.057816554 -1.0849005 -0.13871515 -0.1491824 -0.16353701 0.84108096 -0.14640285 -0.2013814 0.77779543 -0.34688464 -0.32562655 -0.10719657 -0.15706843 0.91746646 0.45976222 0.21691525 0.19981188 0.7492328 1.4901513 0.550177 0.7942399 0.9956853 -0.46451923 -0.3266131 -0.58454305 -0.5334047 0.051584743 0.14458111
412477282 0.83976763 -0.7426059 1.7413182 -0.32233912 0.16922782 0.5060902 0.4424022 -0.66647106 1.0628107 -0.19119368 -0.26225936 -0.35829735 0.3845222 0.1718752 0.34180534 -0.09553182 -1.0493846 0.9273062 -0.15309814 1.0327744 0.15147232 0.28212866 -0.41408357 -0.7026355 -1.0543419 0.093507834 0.17149046 -0.3831587 -0.24540003 0.7199104 -0.15843578 1.0344174 -0.5900922 0.022394622 -0.14267872 0.48096845 0.058423825 -0.84207946 -0.0068000793 -0.29486695 0.07871643 -0.546626 -0.5126693 0.76636684 0.19048695 1.2206191 -0.42440575 0.037389655 0.0006560776 -0.54262197 -0.03651527 0.79853696 -0.021151843 0.78273463 0.51926917 0.52443033 -0.22963849 0.32448754 0.2741465 0.51239985 -0.5551967 -0.52606773 1.2270093 0.36730862
5245818021 1.0139557 -0.8003161 1.1655164 -0.614455 -0.86150706 -0.9453684 0.33047885 -1.1326365 -0.03233843 0.03961281 0.9637032 0.054564714 0.46379662 -0.14399277 -0.15585008 0.014930306 -0.6168689 -0.14467832 -0.2685033 0.69517624 0.08022446 0.27179742 0.065739766 -0.6818703 -0.14827272 0.86805314 0.07389466 0.1537951 -0.16078506 0.26939026 -0.011444218 -0.6240415 0.94094354 -0.5470263 0.4773934 0.5306169 -0.49489033 -0.70436895 -0.0068729683 -0.09408312 -0.5456138 -0.1120196 -0.27505818 1.0013543 1.1894633 -0.19754378 0.30650434 -0.41563725 -0.5561686 -0.0048648934 0.4933025 -0.5812676 -0.35104027 0.80390483 0.46202376 -0.20573093 0.66783035 -0.37494364 0.23707195 0.80390006 -1.0159442 -0.5886851 -0.63088286 0.09199695
317283513 1.2600698 -0.4373011 1.3556416 -0.09921927 1.1116312 1.0252686 -0.5793844 -0.43356016 0.8284502 -0.3960765 0.592688 -0.34679604 0.28823337 -0.19129083 0.69356996 0.36211136 -0.4203165 -0.0005398437 -0.10057028 1.5381615 -0.1628089 0.28468227 0.10834519 -0.6816322 -0.15803814 -0.40458715 0.13470842 0.013121904 -0.29590672 0.27001846 -0.28352576 -0.4378279 -0.34082633 -0.42534122 0.413283 0.16102241 -0.7165738 -1.463115 0.5715717 -0.074232645 -0.34392136 -0.91462713 -0.52319026 -0.023155732 0.99615204 -0.560863 -0.12418715 0.02437908 -0.45209718 -0.27584755 -0.15176314 -0.7808364 -0.12683927 0.10493203 0.50008893 -0.33718655 0.25667283 0.47424695 0.7244588 -0.48117894 -1.0034323 0.5589737 0.5618667 -0.7230831
290434369 1.4141233 -0.22310463 1.0261943 0.37177062 1.0624721 0.107553944 -0.34041917 -0.38211468 0.20192817 0.9024147 0.84509695 -0.9322407 -0.127249 -0.12878908 0.70757085 0.0311631 -0.25686035 0.57133996 0.9361016 0.35636398 -0.5592645 0.28983545 -0.847781 -0.6934625 0.2842657 0.6007927 -1.5043749 0.20085725 0.14686766 0.24412175 0.3944882 -0.0117290765 0.12463658 -0.43957654 -0.77147675 0.2828398 0.030164637 -0.20479429 0.4869868 0.6168474 -0.4351158 -0.45054343 -0.17760949 -0.23375235 0.67188597 0.12141245 0.21618995 -0.14855349 -0.4227796 -0.3781724 0.2616032 -1.0004438 -0.38442135 -0.21866325 0.42111716 -0.58654404 0.3417722 -0.043909438 -1.6055928 0.40440106 -1.3478307 -0.8757138 -0.5944857 -0.21696118
2457190741 1.2813424 -1.5080286 0.61464494 0.1975348 1.0147934 -0.3878945 -0.0910617 0.011014094 -0.5006612 -0.9856425 -0.413521 -0.74551105 0.7878151 0.5761812 0.4461624 0.11771273 -0.2370429 0.3463612 -0.17262675 0.6904676 0.4870111 0.69356304 -1.4747416 -0.45982197 0.3341957 0.6544147 -0.30517697 -0.098478906 0.08051616 0.18153842 -0.50502765 0.8129459 -0.27747968 -0.59795487 -0.6044862 0.64169353 -1.5968524 -0.84955835 -0.04195764 -0.5223429 -0.49319512 -0.14979273 -0.59755135 0.27480647 0.011209041 0.59707254 0.40694436 0.14633742 -0.9892075 0.6169316 0.74141836 -0.042832572 -0.6333156 -0.3410416 0.028208774 0.40125906 -0.33609462 -0.08466591 0.04567 0.41825414 -1.313211 -1.1335461 -0.48202574 0.036328223
568378932 0.55985093 -0.876479 0.18785278 0.18537576 0.40047085 -0.2113748 -0.8367354 -0.863066 0.2779939 -0.30599943 1.5027503 0.0046268883 0.39686015 -0.72608155 0.122529745 -0.21087645 -0.81155646 0.8143482 0.76843125 0.98866826 -0.8530966 0.93306285 -0.9089864 -0.6593422 -0.07297623 -0.15400593 -0.29666913 -0.17787768 -0.9436139 0.31285584 -0.056023855 -0.13658479 0.14073054 -0.5055559 0.12155296 0.23031507 0.15932113 -0.32215288 0.5623272 0.26003557 -0.5124408 -0.6285126 -0.29664853 0.23920044 1.1293169 0.45737025 0.10073614 -0.35055065 0.37967867 0.7615356 -0.51990765 0.3260373 -0.1596855 -0.04725372 0.83213663 0.15493467 -0.64919853 -0.25849253 0.11884616 0.9773099 -1.3400987 0.73822856 0.57105213 -0.066651985
144255149 0.62384236 -1.4506521 0.19150656 -0.91571707 0.3392437 0.92943513 -0.107345715 -0.37426502 0.86008376 -0.36657807 0.08307563 -1.5856763 -0.0061920197 0.07855098 0.18228248 -0.007855157 -0.16729645 -0.3712698 -0.32357338 0.8452757 0.61660707 0.4081871 -0.34965903 -1.3118194 -0.5648813 0.23962516 -0.63076913 0.0017287962 -0.734917 -0.9345535 -0.31444144 0.52029085 0.27650487 -1.4598858 0.9005466 -0.010660964 -0.15782812 -0.6591559 0.36638856 -0.08466637 -0.8717773 0.8780041 -0.510235 -0.033656947 0.010915653 0.0828849 0.06690847 0.13393946 -0.19379129 0.11857134 -0.108724736 -0.18851939 -0.56881845 0.6539087 0.22960587 0.39492646 0.16366458 -0.10938412 -0.5355336 0.2738461 -0.9418472 -0.18251857 0.7260837 0.30550337
1684974875 1.3175714 -0.96334714 1.6493982 -0.06561264 0.259887 -0.52870864 0.47757676 0.09046201 -0.34917405 -0.17629252 0.8242432 -0.77094775 -0.29435998 -0.56757015 -0.44556376 -0.57762665 -0.49289754 0.20974012 0.49068493 0.2881817 -0.36821193 0.117556214 0.11621902 -0.35776016 0.2218629 -0.5420752 -0.035922308 0.018115679 -0.7431698 0.024019616 -0.13782257 -0.11351573 0.08611864 -0.64129597 -0.9033174 0.62053657 0.5729077 -0.7439461 0.042683244 -0.36094472 -0.5645814 -0.85572535 -1.4313948 -0.19681962 1.5444185 -0.03480433 0.23972888 -0.2600029 0.31535038 1.5498701 -0.44479692 -0.9714408 -0.48722905 -0.1312958 0.50581425 -0.03817471 0.20210946 -1.4127798 -0.71581167 0.61716694 -0.9843835 -0.5299337 0.5297511 -0.14790684
711026510 0.7813761 -0.9421538 1.1699473 0.28161156 0.7661855 -0.5396137 0.17269155 -1.0167079 0.23937774 0.2586406 1.1960127 0.19686693 0.5566679 -0.27495804 0.106261715 0.61184144 -0.58054453 -0.020251902 0.1471888 1.0474993 0.63875145 0.11464571 -1.0565355 -0.39136863 -0.21599673 0.35553703 -0.8124827 0.7740588 0.36710548 0.44708353 -0.22038378 0.23499845 0.22801363 -0.3088029 -0.325508 0.045475032 -0.21667677 -0.8536334 -0.028286533 0.6526331 -0.17111269 0.5427715 0.43316016 0.103763744 1.3017441 0.1570247 -0.54805505 -0.128977 0.9763714 0.24978128 1.1823763 -0.6991721 -0.7042624 -0.044847485 -0.38467067 0.59783983 -0.24772562 0.44605368 -0.6655116 0.47774306 -0.63062394 0.6193444 0.41440186 -0.021624835
117321015 0.7837016 -0.7740865 1.0066559 -0.6846768 0.4319618 0.08881354 -0.56489843 -0.50857306 0.7662815 -1.0862836 1.1285079 0.28123355 0.44089824 -0.4183445 0.5117892 0.54086477 0.2095789 0.68175346 0.821191 -0.0072726365 -0.2547567 0.14595415 -0.77868766 -0.78028774 -1.0880322 0.5788091 -1.0676239 0.71325874 0.2761379 -0.53294504 0.97988117 0.41084316 0.7068695 -0.46568084 -0.48103046 0.4791957 0.035046626 -0.61450195 -0.65421534 -0.96654564 -0.895548 -0.3613518 -0.15654004 0.60272557 1.2258381 0.01892572 -0.74531454 0.3983192 -0.3756061 0.8301187 0.3642664 -0.72975206 -0.5463445 0.16285764 0.36301854 -0.06836144 0.37490392 0.5196048 -0.035819583 -0.3838384 -0.48285642 -0.19424284 -0.5377904 -0.1976502
262555154 0.2293084 -0.97831994 1.5387833 -0.6344207 0.34429306 1.0140607 -0.34489015 -0.8742163 -0.13473643 0.07723389 0.09594065 -0.2387953 1.0202012 0.15123425 0.6827257 0.35491082 0.30041888 -0.31202364 -0.13770625 0.4337386 0.29559866 -0.23096162 0.3211588 -1.3117224 -0.88183886 0.40745753 -0.8504323 -0.73820776 -0.32028234 -0.14081036 0.38400173 -0.3361661 0.009907712 -1.0008265 -0.8154942 0.07146219 -0.6517325 -0.3607998 -0.4444241 0.25524446 -0.45958516 0.3599873 0.4579903 0.8115937 0.03389267 0.85397965 0.22446859 -0.74557126 -0.13739085 0.39312363 0.6397063 -0.77124834 0.17350115 -0.36251578 0.7677933 0.83105886 0.390636 -0.36354426 -0.7294041 0.8930806 -0.7332796 0.06522394 0.074903294 -0.057864677
1281727217 0.91730934 -0.032183107 1.9125051 -0.6645 1.5734007 -0.36274204 0.3409268 -0.11047193 0.08350866 -0.3406574 0.32319906 -0.9222539 0.31589264 0.59506667 0.120390385 -1.118434 -0.33786604 0.17543828 0.42833835 1.2574825 -0.79560214 0.4924945 0.24673341 -0.34629953 -0.4238428 -0.0902407 0.033252984 0.7793792 -0.97737765 0.53430945 0.7658192 -0.23973067 -0.02744077 -1.2843864 -0.07571141 0.2742819 -0.63166195 -0.43867496 -0.61414343 -0.3348025 -0.12050004 -0.14519519 -0.121455625 -0.052288756 0.95014256 0.33276924 0.4148132 -0.037858915 -0.39516008 -0.35988817 0.40718627 -0.6398069 -0.40794984 0.37496597 0.8510181 0.57503194 0.37340757 -1.14874 -0.32324195 0.55367124 -1.2873567 -0.18998735 -0.33909893 0.24378756
940727649 0.7780481 -0.3523977 0.5115885 0.339427 -0.16114686 0.2586502 -0.7455108 -0.50039214 0.87527114 0.48885885 0.48527244 -0.3147573 0.22022702 -0.15683676 0.12285423 0.088157035 -0.5115707 -0.37743232 -0.06842617 1.0016489 -0.32848474 0.9326949 -1.5347503 -0.7532619 -0.46524748 0.47580177 0.2381539 0.032930616 0.211681 -0.16582184 0.60512024 0.26304004 -0.13570714 -0.11093064 -0.1985504 0.9861858 -0.17369606 -0.9475336 0.12080559 0.43438438 -0.13333173 -0.5064116 -0.42069587 -0.121295944 1.1293305 0.19163021 -1.3162011 0.3959164 0.11919446 -0.5716039 0.9065286 -0.84121245 -0.16727994 0.59896904 0.7105299 0.6938341 0.20218565 0.188253 -0.56275505 1.0005668 -0.9039305 0.6525501 0.06973365 -0.080438785
8419030289 1.6103959 0.64456093 1.4884436 -1.0941746 0.43794128 0.51592237 0.24459797 0.080959775 0.37388587 -0.80694926 0.10150172 0.13097551 0.17199218 -0.63686216 0.10281908 0.29074302 -1.190875 0.23516338 -0.28982472 0.78857106 -1.1658825 -0.35521236 -0.19471212 -0.7431717 -0.3517101 0.49544048 -0.09065563 0.31617436 -0.45066124 0.35619977 -0.31799194 0.19478217 -0.6005959 0.045378033 -1.0174389 0.25178057 -1.1668086 -0.04500744 0.565016 0.27955163 0.35806507 -0.1364982 -0.31557053 -0.47012514 0.057722546 1.1448588 -0.9260848 -0.9252031 -0.14373936 0.61192596 0.781137 -0.84712076 -0.5624342 -0.15967768 0.120530896 0.32152894 0.8552959 0.3133975 -0.33866996 1.050429 -0.8419891 -0.32665938 1.3292794 0.48201832
320858246 1.1412686 -0.86448216 0.8030177 -0.6404676 0.4691221 0.077089466 -0.5631326 -0.5762542 1.0549732 -0.7085923 1.1276677 0.29347554 0.2038309 0.014798345 0.46573117 0.41803628 0.34696117 0.7575514 0.9790559 0.17975095 -0.2174482 0.3699452 -0.83649796 -0.7367277 -0.95849705 0.5353099 -0.8492481 0.9811536 -0.074002 -0.3834472 0.83541864 0.74829453 0.46527934 -0.58904386 -0.48411414 0.1846421 0.16471928 -0.57024664 -0.533659 -0.7683223 -0.4167213 -0.32153794 -0.40656096 0.6389892 1.0126389 -0.37028947 -0.88362235 -0.0056332326 -0.4407996 0.46441445 0.20424531 -0.5242202 -0.6176507 0.17525324 0.4530547 0.107556984 0.5388036 0.3592725 -0.10534525 -0.353327 -0.19474107 0.005421186 -0.45548362 -0.55517
109929871 1.4074361 0.07406315 0.21149251 0.5264617 0.73870355 0.2881931 -0.26205754 -0.4223193 -0.20339373 -0.1942346 0.12538445 -0.33610472 0.28741726 -0.26666614 -0.39784032 0.07558286 -0.5261119 0.88235503 -0.288279 1.781565 -0.12061969 0.6748576 0.035545345 -0.322497 -0.8786557 0.32899728 -1.1677341 -0.91864747 -0.1466502 0.6833839 -0.61147606 0.3627028 0.10884533 -0.32414255 -0.1865051 0.35644338 -0.0038783136 -0.48420936 -0.039744962 0.01775034 -0.22072808 0.21824521 0.25931165 -0.34994653 -0.06090535 -0.0905744 -0.90595686 0.32113254 -0.41499832 0.48908442 0.7585647 -1.1584628 -0.07112017 -0.08851274 0.841916 0.859306 1.4815447 0.020947041 -0.30993864 0.4278113 -1.1217749 -0.59876996 -0.27193418 -1.0984304
1388459597 1.1320772 -1.1291196 0.69102347 -1.1180395 0.4572391 -0.02943796 -0.7732692 -0.844597 -0.49174866 -0.20683281 0.49471703 0.33207563 0.70331585 0.17177567 0.48876503 -0.30227432 -0.60456806 0.27710202 -0.6893049 1.5201418 -1.5457252 -0.5892648 0.52937675 -1.5150988 -0.5158857 0.01827527 0.25751522 -0.44178474 -0.4688707 -0.30577484 0.49813 0.4745644 -0.40038285 -0.49575055 -0.1413109 0.03605932 0.6572752 -0.2628452 1.3324105 0.89999896 0.13479847 -0.29251826 -0.22805117 0.2148768 0.62091994 1.2772146 -0.5654429 -0.39603508 0.7967712 0.1532724 0.46692523 -0.96913743 -0.19824919 0.014141087 -0.19478391 0.76292264 0.85513735 -0.17681415 -0.2640508 0.009462543 -1.2672229 -0.32228684 -0.31329426 0.88191664
6190609032 0.69958675 -0.60290235 0.58971167 -0.0011807563 0.920142 -0.690663 -0.0137565825 -0.25894096 0.3943775 -0.7302116 0.28475833 -0.6475483 -0.18419333 -1.534546 -0.31026483 -0.8745781 0.495278 0.22522719 0.15887883 1.4071275 -0.32674465 0.026918793 -0.69778115 -1.1341895 -0.39666954 -0.47624886 -0.35183138 -0.39103624 -0.55542 0.78446865 -0.095742546 0.38340363 -0.85552603 -0.13685471 -0.38995525 0.645349 -0.4132022 -0.73376226 -0.051288996 0.040475927 -0.3498706 -0.52233535 -0.2101973 1.3278633 0.21967436 0.8543648 -0.34243515 0.183111 -0.54398733 0.36632615 0.5041492 -0.54878 -0.07866477 0.2870385 -0.605212 0.5734547 0.83312935 -0.635572 0.25606185 -0.012824314 -0.7930365 0.22942701 0.96923065 0.40599555
729916200 0.9632927 -0.54349995 1.3655149 -0.75399965 -0.02867522 0.25688893 -1.0713674 -1.136392 -0.1631449 -0.9076732 0.57739455 -0.7003917 0.23990977 -0.52643347 -0.5923856 0.12629937 0.0051535773 -0.08561213 -0.14751343 1.1280646 0.17458965 0.09420374 -0.41489956 -0.7562789 -0.4913909 0.5238848 -0.43594006 0.84420013 -0.23909451 0.6953779 0.44401294 -0.28105462 0.9721382 0.4919856 0.20056129 -0.02128939 -0.6280809 -0.9100238 -0.6069348 -0.14303777 0.31838074 -0.34314156 0.1912452 -0.4130897 0.19241089 0.15555921 -0.8393391 -0.4464002 -0.62446815 -0.57026577 0.50753045 0.1445236 0.47097078 -0.80561066 0.3014289 -0.17085247 0.7557019 0.04355331 -0.35384208 -0.62256885 -1.3371238 -0.32681304 0.47135782 -0.14985147
360908987 1.1467242 -0.18244162 -0.043026965 -1.4308441 1.8561989 -0.08040797 0.23268548 -0.40333143 0.54511106 -0.65372443 0.10844608 0.16011027 -0.036504973 0.42982772 -0.38466933 1.4872144 -0.6448584 0.6347373 -0.20322303 0.6885813 0.83658767 -0.26550424 -0.9663165 -0.7216351 -0.52128345 0.66353905 -1.0791124 0.107922874 -1.1675386 0.5038609 0.6221063 0.20337099 0.61186 -0.38634753 0.33684838 -0.25345144 0.39335865 -1.1109747 0.016858738 -0.2110943 0.17174965 -0.7388936 0.036509126 -0.33723092 1.160086 0.41666618 -0.57659906 -0.09714495 0.3362533 0.42690554 0.33138934 -0.22186087 -0.9412008 -0.25564435 0.27061152 0.57387805 -0.16106448 -0.8832768 -0.13823014 0.5559216 -0.93428206 0.3266744 0.4998211 -0.45379204
299550725 0.98610896 -0.23489973 1.1352158 -0.83476585 0.025988718 0.10662517 -1.1706973 -1.2159313 -0.053769533 -1.0058453 0.3616439 -0.4983531 0.2539977 -0.49754232 -0.5719912 0.16074622 -0.017879818 -0.092079364 -0.09894 0.98576146 0.23429853 0.07152456 -0.87561584 -0.61946756 -0.43200174 0.7590233 -0.77622914 0.7902481 -0.44848266 0.6955499 0.24047732 -0.2788692 1.19695 0.12922063 0.048809912 0.1795523 -0.50252086 -1.0157721 -0.5014731 -0.26038396 -0.041653015 -0.42746377 0.055921093 -0.39211252 0.091085024 0.114707656 -1.0998703 -0.57084835 -0.76208436 -0.48382968 0.44754872 0.1786314 0.53828025 -1.0064749 0.124035604 -0.3053442 0.64107907 -0.10716945 -0.4288744 -0.44490042 -1.461903 -0.20391716 0.23808736 0.14013834
315740949 0.8568665 0.4584836 1.4642849 -1.2050867 0.13971382 -0.042057842 -0.5185507 -0.73757505 0.30428144 0.07280084 -0.6317584 -0.39088228 0.18856925 -0.056998286 0.33049625 -0.26511943 0.07982131 0.3117389 0.1723925 1.5015025 0.8005415 0.359542 -0.115419865 0.081474885 0.39362982 0.50492257 0.18705356 0.17705624 0.20286046 0.06415125 -0.08187164 0.32581592 0.5613272 -1.3119437 -0.27805614 0.37019125 -0.56421274 -0.32922882 0.2366626 0.59099895 0.104880966 -0.7553926 -1.0113045 0.056255564 -0.22599447 0.07419922 -0.16585629 0.013519173 -0.079945356 0.34339166 0.58823127 -1.3652796 -0.17262709 -0.18831596 -0.17635772 0.22453263 0.29676268 -0.19799303 0.17429033 -0.030323522 -1.620938 -0.4778274 -0.24218588 0.35282007
183389900 0.70328516 -0.6112283 1.2080815 -0.2411615 -0.013663335 0.49579278 -0.19600725 -0.111156546 1.0226386 0.20175089 -0.14975677 -0.39452115 -0.19470984 -0.50230294 -0.30817586 -0.6605692 -0.31623143 0.55471295 -0.26948342 0.71344143 0.13015698 0.15148184 -0.08605347 -0.3160014 -0.9497302 0.9321589 -0.5358524 -0.06487399 -0.3641561 0.45996755 0.33030874 0.27025852 0.12534042 -0.17027892 -0.39118078 0.52155274 0.23240039 -0.874866 -0.13737492 -0.16779324 -0.738544 0.053155243 -0.40387252 -0.5992032 0.8285508 0.5577018 -0.04040887 0.49556273 -0.63823104 1.3825572 0.48778805 0.87398356 -0.46042243 -0.8370389 0.20125708 0.93338454 1.3998138 0.47477475 0.24488391 0.48276773 -1.5008174 0.9436083 0.5754583 0.86263925
1806036536 0.37196553 -0.19977169 0.77825785 -0.17508243 0.044680085 0.06381218 -0.22664791 0.16250214 0.0077702794 -0.106908694 0.1728606 -0.79348826 0.5251484 -0.29901198 -0.36929765 -1.2840434 -1.0711529 -0.34142983 0.022225358 0.4144535 0.07711311 0.4858069 -0.5641194 -1.0664006 -0.8153563 0.66780263 -0.774098 -0.11712268 -0.8477165 0.9081204 -0.72298145 0.9918249 0.154942 -0.43908444 -0.51824224 0.8250316 -0.6996918 -1.2361777 0.67169845 1.1053905 0.13481861 -0.6686397 0.19480465 0.613951 0.92488533 0.990059 -0.49665222 -0.7388098 -0.20047297 -0.101969324 0.20462173 -0.62823737 -0.76314646 -0.23725441 0.31352577 -0.094324864 0.3227985 -0.36742893 0.15438186 -0.48874274 -0.6255213 -0.08079988 0.9343704 0.7333452
654017509 0.33200675 -0.682237 0.63142025 -0.70073605 -0.30783373 0.20846076 -0.042912204 -0.23181567 1.2123494 -0.3265795 0.27214757 -1.4877204 -0.060866572 -0.053014774 -0.8109453 -0.28394562 -0.6734937 -0.39300632 -0.67403936 1.5579935 -0.037756268 1.0841317 -0.59203047 -0.51641154 0.66542625 0.41060346 -0.6738472 1.0162504 0.051009808 0.4997727 0.78447056 0.20115423 0.15663256 -0.38587478 -0.6818059 1.3206004 0.38713998 -0.7282238 0.5591545 -0.39044937 -0.8247203 -0.01472487 -1.1309985 0.33636793 0.6483371 0.718891 0.7021922 -0.5882798 0.073274136 0.7998603 1.1636462 -0.20500438 0.25980687 -0.53967255 0.3024894 -0.053699087 0.13483344 0.42826447 -0.25697878 -0.14723106 -0.30413744 -0.8077489 0.36026382 0.19153081
144272589 0.6435768 -0.4380176 0.59520346 -0.90006167 0.38352305 -0.055206332 -0.43237522 -0.6012646 0.27279523 0.75760347 0.62412184 0.066771746 0.7183399 -0.19853087 -0.27083197 0.07905699 0.07857368 -0.59780824 0.6636587 0.532019 -0.19045156 0.9078203 -0.18765701 -1.3246715 -0.58577645 0.3593712 -0.69553006 0.03250481 0.054549947 0.29169858 0.5280425 0.4602273 -0.29986745 -0.30104113 0.10913206 -0.26783314 0.28099912 -0.82622 0.5610323 -0.35669664 0.36743847 -0.023876453 -1.4745408 0.77016896 0.98975015 0.97267014 0.2728013 -0.5491419 0.16153243 1.3459224 -0.25361213 -0.31340656 0.1871655 -0.23299007 0.034272775 1.3460759 -0.54160714 -0.024373792 0.2869707 0.06042344 -0.41844162 0.20058228 0.26937762 0.3391952
1281838661 0.6059743 -0.50783527 1.4796501 -0.57216877 -0.27072075 -0.5846886 -0.7271898 -0.69196445 0.6149278 0.41263026 -0.43071467 -0.1255104 -0.20196837 -0.56351113 0.93647665 -0.0024688495 -0.12140849 0.78013706 0.33741054 1.0471923 -0.25912848 0.22473444 -0.44159362 -1.0348758 -0.8256144 0.035778906 -0.039494924 0.7227658 -0.41157016 0.5124804 -0.2744655 0.37777328 0.005492566 -0.038875677 -0.8906027 0.16555946 -1.0817401 -0.26300797 0.5080793 0.46985936 -0.5601022 0.08762115 0.19517663 -0.07318921 -0.24369407 0.23550002 0.60307443 0.15673056 0.39026174 0.9716123 0.26363236 0.3371047 0.0035951177 0.12970123 0.6967126 1.432298 0.5482267 -0.25747138 -1.2740821 0.2630314 -1.1035535 -0.16911599 0.6600231 -0.39807916
183388361 0.6846169 -0.6704815 1.1042634 -0.30459154 -0.10319188 0.38099423 -0.08767651 -0.34155518 0.84332687 0.4575167 0.1291225 -0.53077024 -0.19096425 -0.53756005 -0.43631956 -0.52651155 -0.3104726 1.074813 -0.29995725 0.7419932 0.38377887 0.032272384 0.042743817 -0.4664304 -0.9592842 0.3703711 -0.6487724 -0.0768229 -0.56656456 0.4380032 -0.2180695 0.33213803 0.092844896 -0.13947019 -0.3943438 0.21086119 0.28134075 -0.6386932 -0.1278537 -0.37280834 -0.7726737 0.027921852 -0.6760287 -0.30895987 0.97388166 0.52077925 -0.016114453 0.66022396 -0.5761227 1.313274 0.44458714 0.76262814 -0.26895073 -0.9164033 0.19033298 0.8458372 0.91515195 0.5957063 0.358324 0.72766405 -1.0552444 1.1490555 0.23579274 0.6410411
144259045 0.41311496 -0.6836236 1.6276747 0.20617758 0.46816167 -0.89310133 0.18083921 -0.71186197 -0.110715665 -0.2987642 0.10498387 -0.45739067 0.09143449 -0.75465643 0.61094207 -0.72290385 0.3244998 0.21519011 -0.32655475 1.206947 -0.26758638 0.49426335 -0.90883774 -1.1353146 -0.28187722 0.8962155 -0.35634044 0.84632975 0.37513325 -0.47881132 0.27520412 0.077482 -0.22548632 -1.2302903 -0.089791074 -0.55557424 -0.42020592 -0.36003193 1.2689579 0.25306362 -0.674094 -0.23730154 0.5153485 0.529914 0.5455482 0.24762553 -1.3292494 0.8956481 0.32217744 0.31319228 0.36289492 0.067627676 -0.2548688 0.16260886 0.75404567 0.47703573 -0.38103372 -0.29470348 -0.05672443 0.72607213 -0.8160441 -0.46146056 -0.18085273 0.5240835
2943357448 0.74689656 -1.0295246 1.2866665 0.18312524 -0.033818934 -0.34694564 -0.044885453 -0.90620553 0.17391703 0.47665945 0.48712757 -0.97535783 -0.90322995 -0.20813878 0.045945387 -0.06867234 -0.16578376 1.2279617 -0.9311893 1.1336874 -0.008110496 -0.59889156 0.42449415 -1.0766137 -0.42104885 0.28359503 -0.04059183 -0.21581402 -0.4306541 -0.32918304 -0.62131727 0.5500894 0.7506338 -0.73451805 0.6638284 0.38779193 0.1664502 -1.0580404 -0.094753675 0.30523992 -0.31596404 -0.2616663 -0.8587048 0.23029852 0.8429918 0.89925104 0.089221865 -0.18132928 0.2178211 1.0364118 -0.077603064 -0.33623284 0.9791372 -0.40163478 -0.030013353 0.22626066 0.25185734 -0.13816094 0.519835 0.068192475 -0.7953745 0.3060763 -0.31079528 -0.5903436
26363793 0.21373275 -1.2366301 1.5724797 -0.5367751 0.32600936 0.9975512 -0.51442593 -0.9675381 -0.16339412 0.13435285 0.040534962 -0.28537905 0.9502366 0.061545804 0.56235576 0.45570558 0.37935585 -0.3007452 -0.15528022 0.6119831 0.3148169 -0.19792187 0.4899967 -1.4051412 -0.99251896 0.37683865 -0.94579995 -0.7691864 -0.25167283 -0.18547647 0.33695707 -0.38112846 -0.0331119 -1.0682147 -0.9501269 -0.029642047 -0.816643 -0.4327272 -0.41828588 0.062640145 -0.61903214 0.12387864 0.4815189 0.7965779 0.098476514 0.85923356 0.12491838 -0.7338689 -0.15935946 0.44414696 0.6796922 -0.9604859 0.3094986 -0.28808516 0.68374497 0.7867881 0.5638341 -0.31044257 -0.8610212 0.9591593 -0.5963555 0.056830797 0.17528388 -0.14482167
117319595 1.3569144 -0.97244453 -0.01878943 -0.9432815 0.3469159 0.56121725 -0.6629375 -1.214586 1.3365821 -0.75139976 0.92091775 0.3032765 0.027854651 -0.16319813 -0.1657311 0.4342567 -0.05287299 0.9852798 0.31386092 0.53366476 -0.4071617 0.51678556 -0.6516617 -0.16303356 -0.8121208 0.5791415 -0.87361056 0.5888655 0.052166976 -0.5068722 0.4157331 0.9656739 -0.028666979 -0.694957 -0.6891866 -0.14116417 -0.31568584 -0.22919905 -0.45374873 0.024263535 -0.015584496 -0.20259558 -0.67142093 0.78229254 0.9521796 -0.22552828 -0.73827076 -0.2848066 -0.2950048 0.07684402 -0.096954346 0.09487051 -0.25630286 0.62236047 0.3173951 0.5241902 0.6748666 -0.032711387 -0.59181327 -0.07722624 -0.23596792 0.10158099 -0.32121903 -0.59844184
331141898 0.29988924 0.37851214 1.3144991 0.34053797 0.32739407 0.62114483 -0.4199111 -0.76820445 0.23506722 -0.5545766 0.8289114 0.21350154 0.22841881 -0.5381135 -0.38339138 -0.3645418 -1.0184175 -0.0583075 -0.11583467 1.7998718 0.1624354 0.1706374 -1.2824234 -0.4279572 -0.7770274 1.2419103 -0.3719129 0.3442256 0.7938034 -0.12280184 -0.49211627 -0.10141364 0.23872775 -1.0288236 0.027616344 -0.21888177 -0.44757926 -0.5361463 0.3119254 0.4990629 -0.037602138 -0.82043755 -0.28876078 0.7479801 -0.047654215 0.36445466 -0.63837004 -1.2578952 -0.9505939 0.37408975 -0.31476575 0.52149445 0.21055968 -0.4039497 0.4109743 0.1974464 0.5523491 0.15868177 -0.6765936 -0.27454826 -0.7317918 -0.42977598 -0.4349261 -0.48696813
940765762 1.6565491 -0.28695497 1.0840129 -0.5861885 0.7196342 0.51265424 -0.231218 0.45681363 0.6776873 0.43311226 0.45803508 -0.040801078 -0.56094754 -0.42981762 -0.047461364 0.1425094 -0.10699427 -0.1546134 0.2708817 0.89817154 0.12057754 -0.26215783 -0.5683213 -1.5649368 0.26005697 0.5995371 0.052020185 -1.5412257 -0.42380258 0.36199763 0.13204281 0.644212 0.09994167 -0.82619035 -0.8203839 0.55564064 0.08835714 -0.47749436 -0.09792819 0.27546766 -0.039745744 -0.5065956 0.26050273 -0.106647365 -0.15980399 0.75707424 0.16528542 -0.09485534 -0.22779223 0.5084434 1.1004634 -1.1484344 -0.23500542 -0.7838877 0.8372974 -0.032235604 0.5070732 0.94120556 -0.36251745 -0.53752404 -1.354998 0.4450281 -0.09881447 0.11705756
148643419 1.0408266 -0.25496548 1.1428877 -0.6165277 -0.03115511 -0.3955169 -0.34880605 -0.584264 0.6121089 -0.20192236 0.2040782 -0.3737648 1.5866418 -0.382781 -0.8099468 -0.10194688 -0.8580618 1.3646039 -0.23345959 0.7912572 -0.09960902 0.81647176 -0.17652087 -0.4650602 -0.122153334 0.52234113 -0.72344494 0.8565409 -0.2325285 0.41409642 0.3749582 0.1405849 0.41224298 -0.20016795 -0.68539727 0.1306758 0.5477025 0.14799641 0.033573154 -0.46823168 0.6851524 -0.38454568 0.18140168 -0.2589781 0.19935034 0.6797239 -0.28857127 -0.06305832 -0.26812556 -0.03708439 0.41062242 0.16402821 -0.8245134 0.25994882 -0.13058315 0.6073571 -0.026369667 0.006320545 -0.8274211 -0.23667197 -1.5655617 -0.7140351 -1.059993 -0.4008137
144296222 1.2303067 -1.0096731 1.4149643 0.037677545 -0.098125435 -0.29836234 0.23761857 -0.08281791 0.451803 0.15845472 -0.2650877 -0.51706135 1.3708993 -0.005777952 -0.26693636 0.11467217 0.6080502 0.25739998 0.02696966 1.1415951 -0.25733832 0.14050698 -0.5010451 -1.4547062 -0.4512188 -0.21058245 -0.5767456 -0.5084722 -0.25872946 0.426882 0.3929715 -0.25768164 0.953675 -0.31789523 -0.81335396 -0.27146998 -0.18332186 -0.7921479 0.42122453 0.30540457 -0.3561328 0.71650875 -0.4002663 0.54678315 -0.23445684 0.46957648 -0.37462366 -0.13520539 -0.30341122 -0.13236976 -0.19922654 -0.8880628 -0.21275601 -0.7671875 -0.2417681 0.7887777 -0.43951136 -0.9017826 -0.3965177 -0.055011127 -0.570849 -0.0560688 -0.07559448 -0.8429926
317168287 0.5797802 -0.34097886 0.16161057 -0.7843334 0.020122262 0.1489976 -0.2535113 -0.38289422 0.6729451 -0.83072263 0.111807145 -0.38710904 1.215172 -0.9393193 0.021666415 0.37076068 -0.3723659 0.97321665 0.5700775 0.037132535 -0.6681124 0.52151215 -1.901315 -1.01937 -0.524679 0.38496643 -0.80989224 0.1221868 0.13745134 0.0581305 0.51062775 -0.12560202 0.34158966 -0.10615666 -0.18215582 -0.053360518 0.30003738 -0.6756254 -0.3489942 0.4778082 -0.04275272 -0.19599134 -0.67138314 -0.5293634 0.38521633 -0.644336 0.32207718 0.19750787 0.038291655 1.066685 0.62429345 -0.3668631 -0.21095043 0.36161226 1.1037664 0.39128652 -0.107735015 0.22655323 0.32766914 -0.338732 -0.92339146 -0.75553167 -0.2044778 0.4809223
312707416 0.83161205 -0.58045727 0.83501756 0.15923107 -0.29125854 -0.064416766 -0.3445153 0.4066836 0.52127904 -0.58495945 -0.47404903 -0.35340023 0.34924787 0.39462328 -0.3722426 -0.15654707 -0.3104565 -0.066308774 -0.13731356 1.5122141 -0.6600246 0.90256375 -0.26646048 -0.9549951 -1.4963508 -0.22916104 -1.0459764 0.023261013 0.41208398 0.5332717 -0.06985944 -0.08122669 0.16196528 -0.23888221 -0.60435754 0.37775025 -0.57833505 -0.50378364 -0.15666398 0.16239974 0.68203735 0.014569059 0.015813695 0.9974876 0.53988135 0.4251709 -0.58092844 -0.44011688 0.5360571 1.4631618 0.41528443 -1.0143673 0.3847178 0.26425022 0.8512429 0.20614465 1.0930959 -0.55353624 -0.4332067 -0.24149138 -0.72283256 -0.87911075 0.93613356 -0.4446454
1282453908 1.0113606 -0.18756323 1.4480886 0.07462369 0.82726705 0.92725235 -0.80890733 -0.29675946 0.69678515 -0.39043626 0.7846918 -1.0276885 0.2842797 -0.22328115 0.5487645 1.0845004 -0.35475716 0.166254 0.13259655 1.2885731 0.051938955 0.033855695 0.13822912 -1.1700239 -0.18372402 0.05513974 0.6453432 -0.34200883 -0.8305651 -0.40804183 0.020523299 -0.56518304 -0.47033834 -0.11230565 0.30055368 0.24298345 -1.1114445 -0.9553042 0.026354134 -0.4145258 -0.18217282 -0.60721123 -0.17850016 -0.09623377 1.1914645 -0.26809776 -0.24375933 0.009045759 -0.3491779 -0.20293859 0.23259166 -0.54525906 -0.31726357 0.15471928 0.6534999 0.050968405 0.29121426 0.33200997 0.47449085 -0.4268058 -0.8984923 -0.04320372 0.95563936 -0.67413646
26343911 1.240769 -0.40777022 0.8765363 -0.2682038 0.71191466 -0.17531213 -0.11513512 -0.5867521 0.4936667 -0.07668038 0.0603185 -0.43043002 0.15022655 -0.17569213 0.7861894 0.0063713053 -0.08553607 -0.9745718 -0.49990526 1.4030703 0.24857168 -0.5505192 -0.11963191 -0.29297832 0.08941966 0.276498 -0.32792252 -0.41060367 -0.64136004 0.13252787 -0.310353 -1.0201803 -0.51867193 -0.9936885 0.042098667 0.16791463 0.32852337 -1.2878658 0.43553412 -0.035027772 -1.5955565 -0.01776045 -0.44516096 1.2654579 0.57333887 -0.63887054 -0.44369587 -0.026194034 -0.0004586385 0.58485 0.64515764 0.30310482 0.38937944 -0.44912222 0.5018569 0.83173716 -0.32922828 -0.22353351 -0.68783414 0.062605485 -1.0359821 -0.80071944 0.1856511 -0.39268225
1651834750 1.2582142 -0.57419115 0.023105534 -1.0964103 0.02505354 -0.34825388 0.2716795 -0.3765041 0.1223912 -0.08280332 1.0467365 -0.6153868 0.082332306 -0.12046283 -0.022269692 -0.17101978 0.47708246 0.10921426 0.41800228 0.86013114 0.35740998 0.50917727 -0.66181135 -0.75499976 -0.8513595 0.68246037 -1.3896166 -0.12537222 -0.5522307 0.039033532 0.10430524 -0.19454989 0.6883988 0.39005452 0.52185714 -0.90516603 0.06330655 -1.4486108 0.1773275 0.5633774 -0.0812339 0.22194378 -0.50860465 0.39154255 1.8690726 0.39016888 -0.74698097 0.6451428 0.066797554 0.9885848 0.049996663 0.03831364 -0.15313648 -0.227061 0.47331876 -0.5462057 0.8904323 -0.79988325 0.023773402 -0.092393674 -0.75454473 -0.6159032 -0.27300635 0.57643753
298086494 0.43839452 0.032398574 1.0514375 -0.61640865 0.62766975 -0.35015845 -0.3519842 -0.71705407 0.6450034 -1.2729065 0.680105 -0.58105266 1.0177759 -1.1890147 0.033364613 0.589261 -0.63329864 0.74467856 0.34424385 0.29141998 -0.40382427 0.8659867 -1.2992512 -1.3970802 -0.6191979 0.1296221 -0.34288028 -0.46316344 0.39746422 -0.14823288 -0.19519168 0.26700306 0.982162 0.63719136 0.09510333 -0.109626345 0.11143893 -1.1108023 0.0013860741 0.60477614 -0.53214985 0.44401842 -0.7830772 -0.5284112 0.5454829 -0.20341891 -0.17240942 0.13178325 -0.2890323 0.87937737 0.43807203 0.036648493 -0.06228612 0.4734206 1.1853448 0.8422598 0.46247938 0.9761146 0.17532666 -0.09323279 -0.3821588 -0.007478496 0.6366892 0.3599413
